{"learner":{"attributes":{"scikit_learn":"{\"_estimator_type\": \"regressor\"}"},"feature_names":[],"feature_types":[],"gradient_booster":{"model":{"cats":{"enc":[],"feature_segments":[],"sorted_idx":[]},"gbtree_model_param":{"num_parallel_tree":"1","num_trees":"200"},"iteration_indptr":[0,1,2,3,4,5,6,7,8,9,10,11,12,13,14,15,16,17,18,19,20,21,22,23,24,25,26,27,28,29,30,31,32,33,34,35,36,37,38,39,40,41,42,43,44,45,46,47,48,49,50,51,52,53,54,55,56,57,58,59,60,61,62,63,64,65,66,67,68,69,70,71,72,73,74,75,76,77,78,79,80,81,82,83,84,85,86,87,88,89,90,91,92,93,94,95,96,97,98,99,100,101,102,103,104,105,106,107,108,109,110,111,112,113,114,115,116,117,118,119,120,121,122,123,124,125,126,127,128,129,130,131,132,133,134,135,136,137,138,139,140,141,142,143,144,145,146,147,148,149,150,151,152,153,154,155,156,157,158,159,160,161,162,163,164,165,166,167,168,169,170,171,172,173,174,175,176,177,178,179,180,181,182,183,184,185,186,187,188,189,190,191,192,193,194,195,196,197,198,199,200],"tree_info":[0,0,0,0,0,0,0,0,0,0,0,0,0,0,0,0,0,0,0,0,0,0,0,0,0,0,0,0,0,0,0,0,0,0,0,0,0,0,0,0,0,0,0,0,0,0,0,0,0,0,0,0,0,0,0,0,0,0,0,0,0,0,0,0,0,0,0,0,0,0,0,0,0,0,0,0,0,0,0,0,0,0,0,0,0,0,0,0,0,0,0,0,0,0,0,0,0,0,0,0,0,0,0,0,0,0,0,0,0,0,0,0,0,0,0,0,0,0,0,0,0,0,0,0,0,0,0,0,0,0,0,0,0,0,0,0,0,0,0,0,0,0,0,0,0,0,0,0,0,0,0,0,0,0,0,0,0,0,0,0,0,0,0,0,0,0,0,0,0,0,0,0,0,0,0,0,0,0,0,0,0,0,0,0,0,0,0,0,0,0,0,0,0,0,0,0,0,0,0,0],"trees":[{"base_weights":[-3.459977E-9,1.1891076E-1,-4.306498E-1,2.757787E-1,-8.025003E-4,-5.187981E-1,-1.999453E-1,8.118033E-3,4.5401845E-3,4.770885E-4,-2.5724939E-3,-6.623211E-3,-1.0273328E-2,-3.3877518E-3,-5.2125505E-3],"categories":[],"categories_nodes":[],"categories_segments":[],"categories_sizes":[],"default_left":[0,0,0,0,0,0,0,0,0,0,0,0,0,0,0],"id":0,"left_children":[1,3,5,7,9,11,13,-1,-1,-1,-1,-1,-1,-1,-1],"loss_changes":[5.254033E1,1.5098677E1,4.4109077E0,2.0116615E0,1.5127453E0,2.9319763E-2,6.5407515E-2,0E0,0E0,0E0,0E0,0E0,0E0,0E0,0E0],"parents":[2147483647,0,0,1,1,2,2,3,3,4,4,5,5,6,6],"right_children":[2,4,6,8,10,12,14,-1,-1,-1,-1,-1,-1,-1,-1],"split_conditions":[9.0847515E-2,-4.6163782E-2,-4.2153373E-2,-2.4438913E-1,-8.559126E-4,-3.4024425E-2,-4.2447275E-3,8.118033E-3,4.5401845E-3,4.770885E-4,-2.5724939E-3,-6.623211E-3,-1.0273328E-2,-3.3877518E-3,-5.2125505E-3],"split_indices":[25,4,13,22,4,1,13,0,0,0,0,0,0,0,0],"split_type":[0,0,0,0,0,0,0,0,0,0,0,0,0,0,0],"sum_hessian":[1.024E3,8.03E2,2.21E2,3.47E2,4.56E2,1.59E2,6.2E1,8E1,2.67E2,3.83E2,7.3E1,8E0,1.51E2,4.7E1,1.5E1],"tree_param":{"num_deleted":"0","num_feature":"32","num_nodes":"15","size_leaf_vector":"1"}},{"base_weights":[-1.4575719E-5,-5.0095546E-1,9.598456E-2,-5.933494E-3,-1.0074008E-2,-2.0540996E-2,2.6054877E-1,5.7615037E-4,-2.2636342E-3,7.961445E-3,4.2301076E-3],"categories":[],"categories_nodes":[],"categories_segments":[],"categories_sizes":[],"default_left":[0,0,0,0,0,0,0,0,0,0,0],"id":1,"left_children":[1,3,5,-1,-1,7,9,-1,-1,-1,-1],"loss_changes":[4.934022E1,3.2673645E-1,1.6515835E1,0E0,0E0,2.4133463E0,2.2199993E0,0E0,0E0,0E0,0E0],"parents":[2147483647,0,0,1,1,2,2,5,5,6,6],"right_children":[2,4,6,-1,-1,8,10,-1,-1,-1,-1],"split_conditions":[2.5469989E-2,-3.4024425E-2,9.151369E-2,-5.933494E-3,-1.0074008E-2,-1.3370888E-2,-2.4438913E-1,5.7615037E-4,-2.2636342E-3,7.961445E-3,4.2301076E-3],"split_indices":[0,1,15,0,0,7,22,0,0,0,0],"split_type":[0,0,0,0,0,0,0,0,0,0,0],"sum_hessian":[1.024E3,1.64E2,8.6E2,1.3E1,1.51E2,5.04E2,3.56E2,3.31E2,1.73E2,8E1,2.76E2],"tree_param":{"num_deleted":"0","num_feature":"32","num_nodes":"11","size_leaf_vector":"1"}},{"base_weights":[-1.966115E-5,1.1455364E-1,-4.149607E-1,2.6535335E-1,-5.2920124E-4,-4.989675E-1,-1.950234E-1,7.807876E-3,4.369538E-3,4.6548538E-4,-2.4793197E-3,-6.4052246E-3,-9.878556E-3,-3.3072154E-3,-5.0756647E-3],"categories":[],"categories_nodes":[],"categories_segments":[],"categories_sizes":[],"default_left":[0,0,0,0,0,0,0,0,0,0,0,0,0,0,0],"id":2,"left_children":[1,3,5,7,9,11,13,-1,-1,-1,-1,-1,-1,-1,-1],"loss_changes":[4.8777225E1,1.3953124E1,4.00441E0,1.857666E0,1.4105818E0,2.1324158E-2,6.0950994E-2,0E0,0E0,0E0,0E0,0E0,0E0,0E0,0E0],"parents":[2147483647,0,0,1,1,2,2,3,3,4,4,5,5,6,6],"right_children":[2,4,6,8,10,12,14,-1,-1,-1,-1,-1,-1,-1,-1],"split_conditions":[9.0847515E-2,-1.7446806E-1,-4.2153373E-2,-2.4438913E-1,2.9829282E-2,-3.4024425E-2,-4.2447275E-3,7.807876E-3,4.369538E-3,4.6548538E-4,-2.4793197E-3,-6.4052246E-3,-9.878556E-3,-3.3072154E-3,-5.0756647E-3],"split_indices":[25,16,13,22,22,1,13,0,0,0,0,0,0,0,0],"split_type":[0,0,0,0,0,0,0,0,0,0,0,0,0,0,0],"sum_hessian":[1.024E3,8.03E2,2.21E2,3.47E2,4.56E2,1.59E2,6.2E1,8E1,2.67E2,3.83E2,7.3E1,8E0,1.51E2,4.7E1,1.5E1],"tree_param":{"num_deleted":"0","num_feature":"32","num_nodes":"15","size_leaf_vector":"1"}},{"base_weights":[-3.342733E-5,-4.8181754E-1,9.229458E-2,-5.731338E-3,-9.686895E-3,-2.3880174E-2,2.4507236E-1,4.7894666E-4,-2.1859438E-3,7.657269E-3,3.973517E-3],"categories":[],"categories_nodes":[],"categories_segments":[],"categories_sizes":[],"default_left":[0,0,0,0,0,0,0,0,0,0,0],"id":3,"left_children":[1,3,5,-1,-1,7,9,-1,-1,-1,-1],"loss_changes":[4.563869E1,2.951088E-1,1.5287674E1,0E0,0E0,2.0910065E0,2.1960392E0,0E0,0E0,0E0,0E0],"parents":[2147483647,0,0,1,1,2,2,5,5,6,6],"right_children":[2,4,6,-1,-1,8,10,-1,-1,-1,-1],"split_conditions":[2.5469989E-2,-3.4024425E-2,8.5199475E-2,-5.731338E-3,-9.686895E-3,-1.3370888E-2,-2.4438913E-1,4.7894666E-4,-2.1859438E-3,7.657269E-3,3.973517E-3],"split_indices":[0,1,15,0,0,7,22,0,0,0,0],"split_type":[0,0,0,0,0,0,0,0,0,0,0],"sum_hessian":[1.024E3,1.64E2,8.6E2,1.3E1,1.51E2,4.89E2,3.71E2,3.16E2,1.73E2,8E1,2.91E2],"tree_param":{"num_deleted":"0","num_feature":"32","num_nodes":"11","size_leaf_vector":"1"}},{"base_weights":[-3.8137943E-5,1.1035713E-1,-3.9984787E-1,2.5539702E-1,-3.3046998E-4,-4.7989577E-1,-1.9020475E-1,7.208384E-3,4.1618207E-3,4.5278345E-4,-2.3894378E-3,-6.1945324E-3,-9.498953E-3,-3.2280162E-3,-4.942708E-3],"categories":[],"categories_nodes":[],"categories_segments":[],"categories_sizes":[],"default_left":[0,0,0,0,0,0,0,0,0,0,0,0,0,0,0],"id":4,"left_children":[1,3,5,7,9,11,13,-1,-1,-1,-1,-1,-1,-1,-1],"loss_changes":[4.5284657E1,1.2907595E1,3.6342163E0,1.5949497E0,1.314017E0,1.4369965E-2,5.688739E-2,0E0,0E0,0E0,0E0,0E0,0E0,0E0,0E0],"parents":[2147483647,0,0,1,1,2,2,3,3,4,4,5,5,6,6],"right_children":[2,4,6,8,10,12,14,-1,-1,-1,-1,-1,-1,-1,-1],"split_conditions":[9.0847515E-2,-4.6163782E-2,-4.2153373E-2,-1.2585825E-1,-8.559126E-4,-3.4024425E-2,-4.2447275E-3,7.208384E-3,4.1618207E-3,4.5278345E-4,-2.3894378E-3,-6.1945324E-3,-9.498953E-3,-3.2280162E-3,-4.942708E-3],"split_indices":[25,4,13,17,4,1,13,0,0,0,0,0,0,0,0],"split_type":[0,0,0,0,0,0,0,0,0,0,0,0,0,0,0],"sum_hessian":[1.024E3,8.03E2,2.21E2,3.47E2,4.56E2,1.59E2,6.2E1,9.2E1,2.55E2,3.83E2,7.3E1,8E0,1.51E2,4.7E1,1.5E1],"tree_param":{"num_deleted":"0","num_feature":"32","num_nodes":"15","size_leaf_vector":"1"}},{"base_weights":[-5.1471256E-5,1.0821357E-1,-3.9214626E-1,2.5044173E-1,-3.282574E-4,-4.706214E-1,-1.8661973E-1,7.37126E-3,4.123341E-3,6.629167E-4,-1.5910954E-3,-9.314657E-3,-6.0869935E-3,-3.166286E-3,-4.8522097E-3],"categories":[],"categories_nodes":[],"categories_segments":[],"categories_sizes":[],"default_left":[0,0,0,0,0,0,0,0,0,0,0,0,0,0,0],"id":5,"left_children":[1,3,5,7,9,11,13,-1,-1,-1,-1,-1,-1,-1,-1],"loss_changes":[4.3553844E1,1.2411998E1,3.492752E0,1.657711E0,1.2735896E0,1.1966705E-2,5.5139303E-2,0E0,0E0,0E0,0E0,0E0,0E0,0E0,0E0],"parents":[2147483647,0,0,1,1,2,2,3,3,4,4,5,5,6,6],"right_children":[2,4,6,8,10,12,14,-1,-1,-1,-1,-1,-1,-1,-1],"split_conditions":[9.0847515E-2,-4.6163782E-2,-4.2153373E-2,-2.4438913E-1,5.035827E-2,4.8278738E-2,-4.2447275E-3,7.37126E-3,4.123341E-3,6.629167E-4,-1.5910954E-3,-9.314657E-3,-6.0869935E-3,-3.166286E-3,-4.8522097E-3],"split_indices":[25,4,13,22,8,3,13,0,0,0,0,0,0,0,0],"split_type":[0,0,0,0,0,0,0,0,0,0,0,0,0,0,0],"sum_hessian":[1.024E3,8.03E2,2.21E2,3.47E2,4.56E2,1.59E2,6.2E1,8E1,2.67E2,3.21E2,1.35E2,1.51E2,8E0,4.7E1,1.5E1],"tree_param":{"num_deleted":"0","num_feature":"32","num_nodes":"15","size_leaf_vector":"1"}},{"base_weights":[-6.300916E-5,1.0611328E-1,-3.8459307E-1,2.455836E-1,-3.2388026E-4,-4.6152636E-1,-1.8310228E-1,7.2290744E-3,4.0431116E-3,4.3815785E-4,-2.3127478E-3,-5.981323E-3,-9.133938E-3,-3.1057363E-3,-4.7633676E-3],"categories":[],"categories_nodes":[],"categories_segments":[],"categories_sizes":[],"default_left":[0,0,0,0,0,0,0,0,0,0,0,0,0,0,0],"id":6,"left_children":[1,3,5,7,9,11,13,-1,-1,-1,-1,-1,-1,-1,-1],"loss_changes":[4.1889484E1,1.1935317E1,3.3567924E0,1.5951099E0,1.2309393E0,9.723663E-3,5.344343E-2,0E0,0E0,0E0,0E0,0E0,0E0,0E0,0E0],"parents":[2147483647,0,0,1,1,2,2,3,3,4,4,5,5,6,6],"right_children":[2,4,6,8,10,12,14,-1,-1,-1,-1,-1,-1,-1,-1],"split_conditions":[9.0847515E-2,-4.6163782E-2,-4.2153373E-2,-2.4438913E-1,-8.559126E-4,-5.0020386E-2,-4.2447275E-3,7.2290744E-3,4.0431116E-3,4.3815785E-4,-2.3127478E-3,-5.981323E-3,-9.133938E-3,-3.1057363E-3,-4.7633676E-3],"split_indices":[25,4,13,22,4,2,13,0,0,0,0,0,0,0,0],"split_type":[0,0,0,0,0,0,0,0,0,0,0,0,0,0,0],"sum_hessian":[1.024E3,8.03E2,2.21E2,3.47E2,4.56E2,1.59E2,6.2E1,8E1,2.67E2,3.83E2,7.3E1,8E0,1.51E2,4.7E1,1.5E1],"tree_param":{"num_deleted":"0","num_feature":"32","num_nodes":"15","size_leaf_vector":"1"}},{"base_weights":[-7.503396E-5,1.0405256E-1,-3.7718543E-1,2.408197E-1,-3.2165303E-4,-4.5177063E-1,-1.7742087E-1,7.089633E-3,3.9644437E-3,4.2962292E-4,-2.2681898E-3,-5.9106606E-3,-8.956724E-3,-2.9600807E-3,-4.6276483E-3],"categories":[],"categories_nodes":[],"categories_segments":[],"categories_sizes":[],"default_left":[0,0,0,0,0,0,0,0,0,0,0,0,0,0,0],"id":7,"left_children":[1,3,5,7,9,11,13,-1,-1,-1,-1,-1,-1,-1,-1],"loss_changes":[4.0288532E1,1.1477147E1,3.2275295E0,1.534874E0,1.1838831E0,2.5405884E-2,5.9515595E-2,0E0,0E0,0E0,0E0,0E0,0E0,0E0,0E0],"parents":[2147483647,0,0,1,1,2,2,3,3,4,4,5,5,6,6],"right_children":[2,4,6,8,10,12,14,-1,-1,-1,-1,-1,-1,-1,-1],"split_conditions":[9.0847515E-2,-1.7446806E-1,-1.1131198E-1,-2.4438913E-1,2.9829282E-2,-3.4024425E-2,-4.6196883E-3,7.089633E-3,3.9644437E-3,4.2962292E-4,-2.2681898E-3,-5.9106606E-3,-8.956724E-3,-2.9600807E-3,-4.6276483E-3],"split_indices":[25,16,9,22,22,1,13,0,0,0,0,0,0,0,0],"split_type":[0,0,0,0,0,0,0,0,0,0,0,0,0,0,0],"sum_hessian":[1.024E3,8.03E2,2.21E2,3.47E2,4.56E2,1.6E2,6.1E1,8E1,2.67E2,3.83E2,7.3E1,9E0,1.51E2,4.5E1,1.6E1],"tree_param":{"num_deleted":"0","num_feature":"32","num_nodes":"15","size_leaf_vector":"1"}},{"base_weights":[-8.648688E-5,1.0203186E-1,-3.6992007E-1,-5.7883916E-4,2.3580962E-1,-4.4303983E-1,-1.740782E-1,6.2790845E-4,-1.5199531E-3,3.9048698E-3,6.838787E-3,-5.806768E-3,-8.782947E-3,-2.9035269E-3,-4.542586E-3],"categories":[],"categories_nodes":[],"categories_segments":[],"categories_sizes":[],"default_left":[0,0,0,0,0,0,0,0,0,0,0,0,0,0,0],"id":8,"left_children":[1,3,5,7,9,11,13,-1,-1,-1,-1,-1,-1,-1,-1],"loss_changes":[3.8748707E1,1.1036669E1,3.1018944E0,1.1553884E0,1.3615341E0,2.2815704E-2,5.7604313E-2,0E0,0E0,0E0,0E0,0E0,0E0,0E0,0E0],"parents":[2147483647,0,0,1,1,2,2,3,3,4,4,5,5,6,6],"right_children":[2,4,6,8,10,12,14,-1,-1,-1,-1,-1,-1,-1,-1],"split_conditions":[9.0847515E-2,9.151369E-2,2.2494152E-2,5.035827E-2,1.1610788E-1,-3.4024425E-2,-4.6196883E-3,6.2790845E-4,-1.5199531E-3,3.9048698E-3,6.838787E-3,-5.806768E-3,-8.782947E-3,-2.9035269E-3,-4.542586E-3],"split_indices":[25,15,0,8,15,1,13,0,0,0,0,0,0,0,0],"split_type":[0,0,0,0,0,0,0,0,0,0,0,0,0,0,0],"sum_hessian":[1.024E3,8.03E2,2.21E2,4.55E2,3.48E2,1.6E2,6.1E1,3.2E2,1.35E2,2.67E2,8.1E1,9E0,1.51E2,4.5E1,1.6E1],"tree_param":{"num_deleted":"0","num_feature":"32","num_nodes":"15","size_leaf_vector":"1"}},{"base_weights":[-9.668459E-5,1.0005141E-1,-3.6279476E-1,2.3157166E-1,-3.1861517E-4,-4.344778E-1,-1.7079851E-1,6.5532755E-3,3.7672748E-3,-3.8813537E-3,2.3654946E-4,-5.8395644E-3,-8.621977E-3,-4.4590873E-3,-2.8480534E-3],"categories":[],"categories_nodes":[],"categories_segments":[],"categories_sizes":[],"default_left":[0,0,0,0,0,0,0,0,0,0,0,0,0,0,0],"id":9,"left_children":[1,3,5,7,9,11,13,-1,-1,-1,-1,-1,-1,-1,-1],"loss_changes":[3.7267902E1,1.0613429E1,2.9811516E0,1.3347149E0,1.1295763E0,2.0498276E-2,5.575335E-2,0E0,0E0,0E0,0E0,0E0,0E0,0E0,0E0],"parents":[2147483647,0,0,1,1,2,2,3,3,4,4,5,5,6,6],"right_children":[2,4,6,8,10,12,14,-1,-1,-1,-1,-1,-1,-1,-1],"split_conditions":[9.0847515E-2,-4.6163782E-2,2.2494152E-2,-1.2585825E-1,-4.0806185E-2,-2.9256873E-2,1.0728667E-1,6.5532755E-3,3.7672748E-3,-3.8813537E-3,2.3654946E-4,-5.8395644E-3,-8.621977E-3,-4.4590873E-3,-2.8480534E-3],"split_indices":[25,4,0,17,12,1,27,0,0,0,0,0,0,0,0],"split_type":[0,0,0,0,0,0,0,0,0,0,0,0,0,0,0],"sum_hessian":[1.024E3,8.03E2,2.21E2,3.47E2,4.56E2,1.6E2,6.1E1,9.2E1,2.55E2,2.6E1,4.3E2,1E1,1.5E2,1.6E1,4.5E1],"tree_param":{"num_deleted":"0","num_feature":"32","num_nodes":"15","size_leaf_vector":"1"}},{"base_weights":[-1.0952451E-4,1.0264138E-1,-3.4030956E-1,4.9007586E-3,2.3008998E-1,-4.260822E-1,-1.5890306E-1,5.49642E-4,-2.199764E-3,6.697354E-3,3.7952624E-3,-5.602058E-3,-8.445621E-3,-1.7900777E-3,-3.6200667E-3],"categories":[],"categories_nodes":[],"categories_segments":[],"categories_sizes":[],"default_left":[0,0,0,0,0,0,0,0,0,0,0,0,0,0,0],"id":10,"left_children":[1,3,5,7,9,11,13,-1,-1,-1,-1,-1,-1,-1,-1],"loss_changes":[3.586469E1,9.814914E0,3.6355057E0,1.2242845E0,1.3133755E0,1.8478394E-2,1.21769905E-1,0E0,0E0,0E0,0E0,0E0,0E0,0E0,0E0],"parents":[2147483647,0,0,1,1,2,2,3,3,4,4,5,5,6,6],"right_children":[2,4,6,8,10,12,14,-1,-1,-1,-1,-1,-1,-1,-1],"split_conditions":[8.940409E-2,-1.4407968E-2,2.2494152E-2,-8.559126E-4,-2.4438913E-1,-3.4024425E-2,-6.741818E-2,5.49642E-4,-2.199764E-3,6.697354E-3,3.7952624E-3,-5.602058E-3,-8.445621E-3,-1.7900777E-3,-3.6200667E-3],"split_indices":[25,3,0,4,22,1,1,0,0,0,0,0,0,0,0],"split_type":[0,0,0,0,0,0,0,0,0,0,0,0,0,0,0],"sum_hessian":[1.024E3,7.87E2,2.37E2,4.46E2,3.41E2,1.6E2,7.7E1,3.73E2,7.3E1,8E1,2.61E2,9E0,1.51E2,2.3E1,5.4E1],"tree_param":{"num_deleted":"0","num_feature":"32","num_nodes":"15","size_leaf_vector":"1"}},{"base_weights":[-1.17743366E-4,1.00648E-1,-3.33745E-1,4.2918264E-3,2.2500221E-1,-4.17848E-1,-1.55869E-1,5.2942545E-4,-2.1573827E-3,6.5681683E-3,3.7107146E-3,-5.631373E-3,-8.2908515E-3,-1.7565738E-3,-3.5506515E-3],"categories":[],"categories_nodes":[],"categories_segments":[],"categories_sizes":[],"default_left":[0,0,0,0,0,0,0,0,0,0,0,0,0,0,0],"id":11,"left_children":[1,3,5,7,9,11,13,-1,-1,-1,-1,-1,-1,-1,-1],"loss_changes":[3.449224E1,9.441083E0,3.495329E0,1.1681378E0,1.2763538E0,1.660347E-2,1.17011786E-1,0E0,0E0,0E0,0E0,0E0,0E0,0E0,0E0],"parents":[2147483647,0,0,1,1,2,2,3,3,4,4,5,5,6,6],"right_children":[2,4,6,8,10,12,14,-1,-1,-1,-1,-1,-1,-1,-1],"split_conditions":[8.940409E-2,9.2662685E-2,2.2494152E-2,-8.559126E-4,-2.4438913E-1,-2.9256873E-2,-6.741818E-2,5.2942545E-4,-2.1573827E-3,6.5681683E-3,3.7107146E-3,-5.631373E-3,-8.2908515E-3,-1.7565738E-3,-3.5506515E-3],"split_indices":[25,15,0,4,22,1,1,0,0,0,0,0,0,0,0],"split_type":[0,0,0,0,0,0,0,0,0,0,0,0,0,0,0],"sum_hessian":[1.024E3,7.87E2,2.37E2,4.44E2,3.43E2,1.6E2,7.7E1,3.71E2,7.3E1,8E1,2.63E2,1E1,1.5E2,2.3E1,5.4E1],"tree_param":{"num_deleted":"0","num_feature":"32","num_nodes":"15","size_leaf_vector":"1"}},{"base_weights":[-1.2576267E-4,9.8693304E-2,-3.273077E-1,3.4631554E-3,2.197107E-1,-4.0977383E-1,-1.528929E-1,4.9119577E-4,-2.1902986E-3,6.4414744E-3,3.622522E-3,-5.4046065E-3,-8.1212465E-3,-4.2954637E-3,-2.4604346E-3],"categories":[],"categories_nodes":[],"categories_segments":[],"categories_sizes":[],"default_left":[0,0,0,0,0,0,0,0,0,0,0,0,0,0,0],"id":12,"left_children":[1,3,5,7,9,11,13,-1,-1,-1,-1,-1,-1,-1,-1],"loss_changes":[3.3172413E1,9.080548E0,3.3605766E0,1.1110665E0,1.2465992E0,1.4665604E-2,1.1303091E-1,0E0,0E0,0E0,0E0,0E0,0E0,0E0,0E0],"parents":[2147483647,0,0,1,1,2,2,3,3,4,4,5,5,6,6],"right_children":[2,4,6,8,10,12,14,-1,-1,-1,-1,-1,-1,-1,-1],"split_conditions":[8.940409E-2,9.151369E-2,2.2494152E-2,-5.7502376E-4,-2.4438913E-1,-3.4024425E-2,1.06754705E-1,4.9119577E-4,-2.1902986E-3,6.4414744E-3,3.622522E-3,-5.4046065E-3,-8.1212465E-3,-4.2954637E-3,-2.4604346E-3],"split_indices":[25,15,0,4,22,1,27,0,0,0,0,0,0,0,0],"split_type":[0,0,0,0,0,0,0,0,0,0,0,0,0,0,0],"sum_hessian":[1.024E3,7.87E2,2.37E2,4.41E2,3.46E2,1.6E2,7.7E1,3.72E2,6.9E1,8E1,2.66E2,9E0,1.51E2,2E1,5.7E1],"tree_param":{"num_deleted":"0","num_feature":"32","num_nodes":"15","size_leaf_vector":"1"}},{"base_weights":[-1.3493489E-4,9.677642E-2,-3.2100055E-1,2.1575595E-1,3.6303834E-3,-4.0185487E-1,-1.499935E-1,6.069342E-3,3.5177525E-3,-1.9922592E-3,5.103984E-4,-5.4306095E-3,-7.9724435E-3,-1.6776465E-3,-3.4223562E-3],"categories":[],"categories_nodes":[],"categories_segments":[],"categories_sizes":[],"default_left":[0,0,0,0,0,0,0,0,0,0,0,0,0,0,0],"id":13,"left_children":[1,3,5,7,9,11,13,-1,-1,-1,-1,-1,-1,-1,-1],"loss_changes":[3.1903975E1,8.732204E0,3.2304707E0,1.1155586E0,1.0557911E0,1.3183594E-2,1.111331E-1,0E0,0E0,0E0,0E0,0E0,0E0,0E0,0E0],"parents":[2147483647,0,0,1,1,2,2,3,3,4,4,5,5,6,6],"right_children":[2,4,6,8,10,12,14,-1,-1,-1,-1,-1,-1,-1,-1],"split_conditions":[8.940409E-2,-1.7446806E-1,2.2494152E-2,-1.2585825E-1,-6.985354E-2,-2.9256873E-2,-6.741818E-2,6.069342E-3,3.5177525E-3,-1.9922592E-3,5.103984E-4,-5.4306095E-3,-7.9724435E-3,-1.6776465E-3,-3.4223562E-3],"split_indices":[25,16,0,17,10,1,1,0,0,0,0,0,0,0,0],"split_type":[0,0,0,0,0,0,0,0,0,0,0,0,0,0,0],"sum_hessian":[1.024E3,7.87E2,2.37E2,3.45E2,4.42E2,1.6E2,7.7E1,9.2E1,2.53E2,7.7E1,3.65E2,1E1,1.5E2,2.3E1,5.4E1],"tree_param":{"num_deleted":"0","num_feature":"32","num_nodes":"15","size_leaf_vector":"1"}},{"base_weights":[-1.424419E-4,7.570739E-2,-3.8206783E-1,2.0279129E-1,-2.0085216E-2,-2.93551E-3,-3.9408985E-1,6.200768E-3,3.3167356E-3,3.9946666E-4,-1.8278757E-3,-5.33419E-3,-7.817771E-3],"categories":[],"categories_nodes":[],"categories_segments":[],"categories_sizes":[],"default_left":[0,0,0,0,0,0,0,0,0,0,0,0,0],"id":14,"left_children":[1,3,5,7,9,-1,11,-1,-1,-1,-1,-1,-1],"loss_changes":[2.9722126E1,1.0424758E1,4.144268E-1,1.3375912E0,1.4590904E0,0E0,1.1457443E-2,0E0,0E0,0E0,0E0,0E0,0E0],"parents":[2147483647,0,0,1,1,2,2,3,3,4,4,6,6],"right_children":[2,4,6,8,10,-1,12,-1,-1,-1,-1,-1,-1],"split_conditions":[1.4589563E-1,-2.077289E-1,-5.3556576E-2,-2.4438913E-1,-1.3370888E-2,-2.93551E-3,-2.9256873E-2,6.200768E-3,3.3167356E-3,3.9946666E-4,-1.8278757E-3,-5.33419E-3,-7.817771E-3],"split_indices":[27,22,1,22,7,0,1,0,0,0,0,0,0],"split_type":[0,0,0,0,0,0,0,0,0,0,0,0,0],"sum_hessian":[1.024E3,8.55E2,1.69E2,3.67E2,4.88E2,9E0,1.6E2,8E1,2.87E2,3.15E2,1.73E2,1E1,1.5E2],"tree_param":{"num_deleted":"0","num_feature":"32","num_nodes":"13","size_leaf_vector":"1"}},{"base_weights":[-1.4746508E-4,9.323501E-2,-3.0932915E-1,4.59853E-3,2.0881182E-1,-3.8647488E-1,-1.4612669E-1,5.040178E-4,-2.0048318E-3,3.4651316E-3,5.97953E-3,-5.3420453E-3,-7.674072E-3,-2.3303805E-3,-4.080496E-3],"categories":[],"categories_nodes":[],"categories_segments":[],"categories_sizes":[],"default_left":[0,0,0,0,0,0,0,0,0,0,0,0,0,0,0],"id":15,"left_children":[1,3,5,7,9,11,13,-1,-1,-1,-1,-1,-1,-1,-1],"loss_changes":[2.9622793E1,8.071568E0,2.9400349E0,1.0194205E0,9.907532E-1,9.979248E-3,1.0638249E-1,0E0,0E0,0E0,0E0,0E0,0E0,0E0,0E0],"parents":[2147483647,0,0,1,1,2,2,3,3,4,4,5,5,6,6],"right_children":[2,4,6,8,10,12,14,-1,-1,-1,-1,-1,-1,-1,-1],"split_conditions":[8.940409E-2,-1.4407968E-2,2.2494152E-2,-8.559126E-4,1.1610788E-1,-4.5765437E-2,-4.6196883E-3,5.040178E-4,-2.0048318E-3,3.4651316E-3,5.97953E-3,-5.3420453E-3,-7.674072E-3,-2.3303805E-3,-4.080496E-3],"split_indices":[25,3,0,4,15,2,13,0,0,0,0,0,0,0,0],"split_type":[0,0,0,0,0,0,0,0,0,0,0,0,0,0,0],"sum_hessian":[1.024E3,7.87E2,2.37E2,4.46E2,3.41E2,1.6E2,7.7E1,3.73E2,7.3E1,2.6E2,8.1E1,1.1E1,1.49E2,5.6E1,2.1E1],"tree_param":{"num_deleted":"0","num_feature":"32","num_nodes":"15","size_leaf_vector":"1"}},{"base_weights":[-1.5579301E-4,9.142419E-2,-3.0336952E-1,1.9910388E-1,-7.809158E-5,-3.7900782E-1,-1.43355E-1,5.7325494E-3,3.2389702E-3,3.964171E-4,-2.0366937E-3,-5.0264965E-3,-7.509679E-3,-2.2856663E-3,-4.004426E-3],"categories":[],"categories_nodes":[],"categories_segments":[],"categories_sizes":[],"default_left":[0,0,0,0,0,0,0,0,0,0,0,0,0,0,0],"id":16,"left_children":[1,3,5,7,9,11,13,-1,-1,-1,-1,-1,-1,-1,-1],"loss_changes":[2.849025E1,7.764131E0,2.8262367E0,1.0881157E0,9.087593E-1,8.92067E-3,1.0264814E-1,0E0,0E0,0E0,0E0,0E0,0E0,0E0,0E0],"parents":[2147483647,0,0,1,1,2,2,3,3,4,4,5,5,6,6],"right_children":[2,4,6,8,10,12,14,-1,-1,-1,-1,-1,-1,-1,-1],"split_conditions":[8.940409E-2,-4.444835E-2,2.2494152E-2,-1.2585825E-1,-5.7502376E-4,-3.4024425E-2,-4.6196883E-3,5.7325494E-3,3.2389702E-3,3.964171E-4,-2.0366937E-3,-5.0264965E-3,-7.509679E-3,-2.2856663E-3,-4.004426E-3],"split_indices":[25,4,0,17,4,1,13,0,0,0,0,0,0,0,0],"split_type":[0,0,0,0,0,0,0,0,0,0,0,0,0,0,0],"sum_hessian":[1.024E3,7.87E2,2.37E2,3.61E2,4.26E2,1.6E2,7.7E1,9.2E1,2.69E2,3.57E2,6.9E1,9E0,1.51E2,5.6E1,2.1E1],"tree_param":{"num_deleted":"0","num_feature":"32","num_nodes":"15","size_leaf_vector":"1"}},{"base_weights":[-1.6396563E-4,8.964796E-2,-2.9752377E-1,4.3582306E-3,2.00861E-1,-3.716836E-1,-1.4063591E-1,4.7055885E-4,-1.997485E-3,5.8576665E-3,3.3097095E-3,-5.1483386E-3,-7.379508E-3,-2.24181E-3,-3.929774E-3],"categories":[],"categories_nodes":[],"categories_segments":[],"categories_sizes":[],"default_left":[0,0,0,0,0,0,0,0,0,0,0,0,0,0,0],"id":17,"left_children":[1,3,5,7,9,11,13,-1,-1,-1,-1,-1,-1,-1,-1],"loss_changes":[2.7400791E1,7.4735665E0,2.7168045E0,9.431845E-1,1.0128574E0,7.7171326E-3,9.904456E-2,0E0,0E0,0E0,0E0,0E0,0E0,0E0,0E0],"parents":[2147483647,0,0,1,1,2,2,3,3,4,4,5,5,6,6],"right_children":[2,4,6,8,10,12,14,-1,-1,-1,-1,-1,-1,-1,-1],"split_conditions":[8.940409E-2,-1.4407968E-2,2.2494152E-2,-5.7502376E-4,-2.4438913E-1,-2.5180893E-2,-4.6196883E-3,4.7055885E-4,-1.997485E-3,5.8576665E-3,3.3097095E-3,-5.1483386E-3,-7.379508E-3,-2.24181E-3,-3.929774E-3],"split_indices":[25,3,0,4,22,1,13,0,0,0,0,0,0,0,0],"split_type":[0,0,0,0,0,0,0,0,0,0,0,0,0,0,0],"sum_hessian":[1.024E3,7.87E2,2.37E2,4.46E2,3.41E2,1.6E2,7.7E1,3.77E2,6.9E1,8E1,2.61E2,1.1E1,1.49E2,5.6E1,2.1E1],"tree_param":{"num_deleted":"0","num_feature":"32","num_nodes":"15","size_leaf_vector":"1"}},{"base_weights":[-1.7155056E-4,7.000463E-2,-3.5352826E-1,1.879784E-1,-1.849819E-2,-1.9395061E-1,-7.2036716E-3,5.515581E-3,3.0341821E-3,3.909036E-4,-1.6818906E-3,-2.4784824E-3,-4.456626E-3],"categories":[],"categories_nodes":[],"categories_segments":[],"categories_sizes":[],"default_left":[0,0,0,0,0,0,0,0,0,0,0,0,0],"id":18,"left_children":[1,3,5,7,9,11,-1,-1,-1,-1,-1,-1,-1],"loss_changes":[2.5441902E1,8.940983E0,3.4406853E-1,1.0866461E0,1.277812E0,1.0068357E-2,0E0,0E0,0E0,0E0,0E0,0E0,0E0],"parents":[2147483647,0,0,1,1,2,2,3,3,4,4,5,5],"right_children":[2,4,6,8,10,12,-1,-1,-1,-1,-1,-1,-1],"split_conditions":[1.4589563E-1,-4.444835E-2,-3.6941808E-2,-1.2585825E-1,6.6987295E-3,-6.926497E-2,-7.2036716E-3,5.515581E-3,3.0341821E-3,3.909036E-4,-1.6818906E-3,-2.4784824E-3,-4.456626E-3],"split_indices":[27,4,1,17,31,2,0,0,0,0,0,0,0],"split_type":[0,0,0,0,0,0,0,0,0,0,0,0,0],"sum_hessian":[1.024E3,8.55E2,1.69E2,3.66E2,4.89E2,1.6E1,1.53E2,9.2E1,2.74E2,3.12E2,1.77E2,7E0,9E0],"tree_param":{"num_deleted":"0","num_feature":"32","num_nodes":"13","size_leaf_vector":"1"}},{"base_weights":[-1.7490769E-4,6.864591E-2,-3.4670693E-1,1.8406811E-1,-1.8356167E-2,-3.5746285E-1,-2.7120793E-3,5.6388853E-3,3.007524E-3,3.7902698E-4,-1.6492273E-3,-4.9585006E-3,-7.096594E-3],"categories":[],"categories_nodes":[],"categories_segments":[],"categories_sizes":[],"default_left":[0,0,0,0,0,0,0,0,0,0,0,0,0],"id":19,"left_children":[1,3,5,7,9,11,-1,-1,-1,-1,-1,-1,-1],"loss_changes":[2.4468634E1,8.599307E0,3.3039856E-1,1.1138353E0,1.2220576E0,6.1798096E-3,0E0,0E0,0E0,0E0,0E0,0E0,0E0],"parents":[2147483647,0,0,1,1,2,2,3,3,4,4,5,5],"right_children":[2,4,6,8,10,12,-1,-1,-1,-1,-1,-1,-1],"split_conditions":[1.4589563E-1,-2.077289E-1,2.2494152E-2,-2.4438913E-1,6.095893E-3,-2.5180893E-2,-2.7120793E-3,5.6388853E-3,3.007524E-3,3.7902698E-4,-1.6492273E-3,-4.9585006E-3,-7.096594E-3],"split_indices":[27,22,0,22,22,1,0,0,0,0,0,0,0],"split_type":[0,0,0,0,0,0,0,0,0,0,0,0,0],"sum_hessian":[1.024E3,8.55E2,1.69E2,3.67E2,4.88E2,1.6E2,9E0,8E1,2.87E2,3.11E2,1.77E2,1.1E1,1.49E2],"tree_param":{"num_deleted":"0","num_feature":"32","num_nodes":"13","size_leaf_vector":"1"}},{"base_weights":[-1.787052E-4,8.4854744E-2,-2.8171727E-1,4.4799573E-3,1.896579E-1,-3.5055643E-1,-1.3601449E-1,4.5437348E-4,-1.894903E-3,5.530116E-3,3.1253672E-3,-4.86973E-3,-6.958921E-3,-2.1847608E-3,-3.8324774E-3],"categories":[],"categories_nodes":[],"categories_segments":[],"categories_sizes":[],"default_left":[0,0,0,0,0,0,0,0,0,0,0,0,0,0,0],"id":20,"left_children":[1,3,5,7,9,11,13,-1,-1,-1,-1,-1,-1,-1,-1],"loss_changes":[2.4562607E1,6.6368933E0,2.3394718E0,8.545899E-1,9.021702E-1,5.016327E-3,9.147632E-2,0E0,0E0,0E0,0E0,0E0,0E0,0E0,0E0],"parents":[2147483647,0,0,1,1,2,2,3,3,4,4,5,5,6,6],"right_children":[2,4,6,8,10,12,14,-1,-1,-1,-1,-1,-1,-1,-1],"split_conditions":[8.940409E-2,-1.4407968E-2,2.2494152E-2,-5.7502376E-4,-2.4438913E-1,-2.5180893E-2,-4.2447275E-3,4.5437348E-4,-1.894903E-3,5.530116E-3,3.1253672E-3,-4.86973E-3,-6.958921E-3,-2.1847608E-3,-3.8324774E-3],"split_indices":[25,3,0,4,22,1,13,0,0,0,0,0,0,0,0],"split_type":[0,0,0,0,0,0,0,0,0,0,0,0,0,0,0],"sum_hessian":[1.024E3,7.87E2,2.37E2,4.46E2,3.41E2,1.6E2,7.7E1,3.77E2,6.9E1,8E1,2.61E2,1.1E1,1.49E2,5.7E1,2E1],"tree_param":{"num_deleted":"0","num_feature":"32","num_nodes":"15","size_leaf_vector":"1"}},{"base_weights":[-1.8558728E-4,8.3206676E-2,-2.762903E-1,4.389247E-3,1.8597914E-1,-3.4378347E-1,-1.3343525E-1,-3.6423558E-3,2.780514E-4,5.4234453E-3,3.0645614E-3,-4.5858347E-3,-6.8099997E-3,-2.128625E-3,-3.7244286E-3],"categories":[],"categories_nodes":[],"categories_segments":[],"categories_sizes":[],"default_left":[0,0,0,0,0,0,0,0,0,0,0,0,0,0,0],"id":21,"left_children":[1,3,5,7,9,11,13,-1,-1,-1,-1,-1,-1,-1,-1],"loss_changes":[2.362361E1,6.38219E0,2.2488632E0,8.429358E-1,8.6810684E-1,4.2304993E-3,8.839893E-2,0E0,0E0,0E0,0E0,0E0,0E0,0E0,0E0],"parents":[2147483647,0,0,1,1,2,2,3,3,4,4,5,5,6,6],"right_children":[2,4,6,8,10,12,14,-1,-1,-1,-1,-1,-1,-1,-1],"split_conditions":[8.940409E-2,-1.4407968E-2,-1.1131198E-1,-4.0806185E-2,-2.4438913E-1,-5.0020386E-2,-4.6196883E-3,-3.6423558E-3,2.780514E-4,5.4234453E-3,3.0645614E-3,-4.5858347E-3,-6.8099997E-3,-2.128625E-3,-3.7244286E-3],"split_indices":[25,3,9,12,22,2,13,0,0,0,0,0,0,0,0],"split_type":[0,0,0,0,0,0,0,0,0,0,0,0,0,0,0],"sum_hessian":[1.024E3,7.87E2,2.37E2,4.46E2,3.41E2,1.6E2,7.7E1,2.1E1,4.25E2,8E1,2.61E2,9E0,1.51E2,5.6E1,2.1E1],"tree_param":{"num_deleted":"0","num_feature":"32","num_nodes":"15","size_leaf_vector":"1"}},{"base_weights":[-1.9379621E-4,8.1588134E-2,-2.7096677E-1,1.9377096E-4,1.7737213E-1,-3.371401E-1,-1.3090427E-1,3.689394E-4,-1.8637767E-3,5.318832E-3,2.9190846E-3,-4.6932106E-3,-6.691804E-3,-2.1551095E-3,-3.870393E-3],"categories":[],"categories_nodes":[],"categories_segments":[],"categories_sizes":[],"default_left":[0,0,0,0,0,0,0,0,0,0,0,0,0,0,0],"id":22,"left_children":[1,3,5,7,9,11,13,-1,-1,-1,-1,-1,-1,-1,-1],"loss_changes":[2.272005E1,6.143432E0,2.161749E0,7.652302E-1,9.186754E-1,3.3931732E-3,8.59946E-2,0E0,0E0,0E0,0E0,0E0,0E0,0E0,0E0],"parents":[2147483647,0,0,1,1,2,2,3,3,4,4,5,5,6,6],"right_children":[2,4,6,8,10,12,14,-1,-1,-1,-1,-1,-1,-1,-1],"split_conditions":[8.940409E-2,8.5199475E-2,2.2494152E-2,3.0647973E-2,-2.4438913E-1,-2.5180893E-2,-2.9546567E-3,3.689394E-4,-1.8637767E-3,5.318832E-3,2.9190846E-3,-4.6932106E-3,-6.691804E-3,-2.1551095E-3,-3.870393E-3],"split_indices":[25,15,0,22,22,1,13,0,0,0,0,0,0,0,0],"split_type":[0,0,0,0,0,0,0,0,0,0,0,0,0,0,0],"sum_hessian":[1.024E3,7.87E2,2.37E2,4.26E2,3.61E2,1.6E2,7.7E1,3.57E2,6.9E1,8E1,2.81E2,1.1E1,1.49E2,6.1E1,1.6E1],"tree_param":{"num_deleted":"0","num_feature":"32","num_nodes":"15","size_leaf_vector":"1"}},{"base_weights":[-2.0041387E-4,8.000326E-2,-2.6574787E-1,4.3533314E-3,1.7915624E-1,-3.306264E-1,-1.2842494E-1,-3.5813316E-3,2.7372094E-4,5.216237E-3,2.9525964E-3,-4.422735E-3,-6.548555E-3,-2.113699E-3,-3.79925E-3],"categories":[],"categories_nodes":[],"categories_segments":[],"categories_sizes":[],"default_left":[0,0,0,0,0,0,0,0,0,0,0,0,0,0,0],"id":23,"left_children":[1,3,5,7,9,11,13,-1,-1,-1,-1,-1,-1,-1,-1],"loss_changes":[2.185159E1,5.9099426E0,2.0779552E0,8.151593E-1,7.984247E-1,2.527237E-3,8.309257E-2,0E0,0E0,0E0,0E0,0E0,0E0,0E0,0E0],"parents":[2147483647,0,0,1,1,2,2,3,3,4,4,5,5,6,6],"right_children":[2,4,6,8,10,12,14,-1,-1,-1,-1,-1,-1,-1,-1],"split_conditions":[8.940409E-2,9.384722E-2,2.2494152E-2,-4.0806185E-2,-2.4438913E-1,-3.4024425E-2,-2.9546567E-3,-3.5813316E-3,2.7372094E-4,5.216237E-3,2.9525964E-3,-4.422735E-3,-6.548555E-3,-2.113699E-3,-3.79925E-3],"split_indices":[25,15,0,12,22,1,13,0,0,0,0,0,0,0,0],"split_type":[0,0,0,0,0,0,0,0,0,0,0,0,0,0,0],"sum_hessian":[1.024E3,7.87E2,2.37E2,4.47E2,3.4E2,1.6E2,7.7E1,2.1E1,4.26E2,8E1,2.6E2,9E0,1.51E2,6.1E1,1.6E1],"tree_param":{"num_deleted":"0","num_feature":"32","num_nodes":"15","size_leaf_vector":"1"}},{"base_weights":[-2.0823185E-4,6.223807E-2,-3.1464252E-1,-1.7260045E-2,1.6670656E-1,-3.2423735E-1,-2.5135574E-3,-3.3862023E-3,-5.6665198E-5,4.9178298E-3,2.6880966E-3,-4.5230915E-3,-6.434941E-3],"categories":[],"categories_nodes":[],"categories_segments":[],"categories_sizes":[],"default_left":[0,0,0,0,0,0,0,0,0,0,0,0,0],"id":24,"left_children":[1,3,5,7,9,11,-1,-1,-1,-1,-1,-1,-1],"loss_changes":[2.0145723E1,7.1119986E0,2.6156425E-1,1.091211E0,8.8062286E-1,1.9931793E-3,0E0,0E0,0E0,0E0,0E0,0E0,0E0],"parents":[2147483647,0,0,1,1,2,2,3,3,4,4,5,5],"right_children":[2,4,6,8,10,12,-1,-1,-1,-1,-1,-1,-1],"split_conditions":[1.4589563E-1,8.433373E-2,2.2494152E-2,-3.6155503E-2,-1.2585825E-1,-4.5765437E-2,-2.5135574E-3,-3.3862023E-3,-5.6665198E-5,4.9178298E-3,2.6880966E-3,-4.5230915E-3,-6.434941E-3],"split_indices":[27,15,0,12,17,2,0,0,0,0,0,0,0],"split_type":[0,0,0,0,0,0,0,0,0,0,0,0,0],"sum_hessian":[1.024E3,8.55E2,1.69E2,4.86E2,3.69E2,1.6E2,9E0,4E1,4.46E2,9.2E1,2.77E2,1.1E1,1.49E2],"tree_param":{"num_deleted":"0","num_feature":"32","num_nodes":"13","size_leaf_vector":"1"}},{"base_weights":[-2.132474E-4,7.708519E-2,-2.5614163E-1,4.1754073E-3,1.7215416E-1,-3.17973E-1,-1.2523149E-1,4.479618E-4,-1.7714386E-3,2.4703094E-3,4.062712E-3,-4.4421162E-3,-6.3101035E-3,-2.0019123E-3,-3.484674E-3],"categories":[],"categories_nodes":[],"categories_segments":[],"categories_sizes":[],"default_left":[0,0,0,0,0,0,0,0,0,0,0,0,0,0,0],"id":25,"left_children":[1,3,5,7,9,11,13,-1,-1,-1,-1,-1,-1,-1,-1],"loss_changes":[2.0297182E1,5.4612703E0,1.8866348E0,7.977651E-1,5.33885E-1,1.16539E-3,7.60113E-2,0E0,0E0,0E0,0E0,0E0,0E0,0E0,0E0],"parents":[2147483647,0,0,1,1,2,2,3,3,4,4,5,5,6,6],"right_children":[2,4,6,8,10,12,14,-1,-1,-1,-1,-1,-1,-1,-1],"split_conditions":[8.940409E-2,-1.4407968E-2,2.2494152E-2,-8.559126E-4,1.1008767E-1,-2.5180893E-2,-4.6196883E-3,4.479618E-4,-1.7714386E-3,2.4703094E-3,4.062712E-3,-4.4421162E-3,-6.3101035E-3,-2.0019123E-3,-3.484674E-3],"split_indices":[25,3,0,4,10,1,13,0,0,0,0,0,0,0,0],"split_type":[0,0,0,0,0,0,0,0,0,0,0,0,0,0,0],"sum_hessian":[1.024E3,7.87E2,2.37E2,4.46E2,3.41E2,1.6E2,7.7E1,3.73E2,7.3E1,1.52E2,1.89E2,1.1E1,1.49E2,5.6E1,2.1E1],"tree_param":{"num_deleted":"0","num_feature":"32","num_nodes":"15","size_leaf_vector":"1"}},{"base_weights":[-2.1984258E-4,5.984301E-2,-3.026527E-1,1.6012047E-1,-1.6829375E-2,-2.6043926E-3,-6.101236E-3,4.943316E-3,2.610912E-3,3.3277858E-4,-1.5166579E-3],"categories":[],"categories_nodes":[],"categories_segments":[],"categories_sizes":[],"default_left":[0,0,0,0,0,0,0,0,0,0,0],"id":26,"left_children":[1,3,5,7,9,-1,-1,-1,-1,-1,-1],"loss_changes":[1.8637215E1,6.5840607E0,2.3889446E-1,8.781433E-1,1.0025564E0,0E0,0E0,0E0,0E0,0E0,0E0],"parents":[2147483647,0,0,1,1,2,2,3,3,4,4],"right_children":[2,4,6,8,10,-1,-1,-1,-1,-1,-1],"split_conditions":[1.4589563E-1,-2.0685756E-1,-5.1843464E-2,-2.4438913E-1,-1.3370888E-2,-2.6043926E-3,-6.101236E-3,4.943316E-3,2.610912E-3,3.3277858E-4,-1.5166579E-3],"split_indices":[27,22,1,22,7,0,0,0,0,0,0],"split_type":[0,0,0,0,0,0,0,0,0,0,0],"sum_hessian":[1.024E3,8.55E2,1.69E2,3.7E2,4.85E2,1E1,1.59E2,8E1,2.9E2,3.12E2,1.73E2],"tree_param":{"num_deleted":"0","num_feature":"32","num_nodes":"11","size_leaf_vector":"1"}},{"base_weights":[-2.1783031E-4,7.42694E-2,-2.468385E-1,1.6109183E-1,4.895616E-4,-3.057881E-1,-1.2199583E-1,4.8479643E-3,2.6461761E-3,-3.4315165E-3,1.9600002E-4,-4.259053E-3,-6.069324E-3,-3.4244822E-3,-1.9642871E-3],"categories":[],"categories_nodes":[],"categories_segments":[],"categories_sizes":[],"default_left":[0,0,0,0,0,0,0,0,0,0,0,0,0,0,0],"id":27,"left_children":[1,3,5,7,9,11,13,-1,-1,-1,-1,-1,-1,-1,-1],"loss_changes":[1.8847673E1,5.0476475E0,1.7142401E0,7.7389336E-1,7.1996504E-1,2.532959E-3,7.149017E-2,0E0,0E0,0E0,0E0,0E0,0E0,0E0,0E0],"parents":[2147483647,0,0,1,1,2,2,3,3,4,4,5,5,6,6],"right_children":[2,4,6,8,10,12,14,-1,-1,-1,-1,-1,-1,-1,-1],"split_conditions":[8.940409E-2,-4.444835E-2,-1.1131198E-1,-2.4438913E-1,-4.0806185E-2,-4.5765437E-2,1.06754705E-1,4.8479643E-3,2.6461761E-3,-3.4315165E-3,1.9600002E-4,-4.259053E-3,-6.069324E-3,-3.4244822E-3,-1.9642871E-3],"split_indices":[25,4,9,22,12,2,27,0,0,0,0,0,0,0,0],"split_type":[0,0,0,0,0,0,0,0,0,0,0,0,0,0,0],"sum_hessian":[1.024E3,7.87E2,2.37E2,3.61E2,4.26E2,1.6E2,7.7E1,8E1,2.81E2,2.1E1,4.05E2,1.1E1,1.49E2,2E1,5.7E1],"tree_param":{"num_deleted":"0","num_feature":"32","num_nodes":"15","size_leaf_vector":"1"}},{"base_weights":[-2.2475327E-4,7.282431E-2,-2.4208373E-1,4.2150947E-3,1.6274837E-1,-2.9988015E-1,-1.1968232E-1,4.2469252E-4,-1.7725488E-3,4.7544516E-3,2.6772383E-3,-4.012138E-3,-5.939534E-3,-1.9754746E-3,-3.5199441E-3],"categories":[],"categories_nodes":[],"categories_segments":[],"categories_sizes":[],"default_left":[0,0,0,0,0,0,0,0,0,0,0,0,0,0,0],"id":28,"left_children":[1,3,5,7,9,11,13,-1,-1,-1,-1,-1,-1,-1,-1],"loss_changes":[1.812689E1,4.860973E0,1.647809E0,7.4786633E-1,6.728678E-1,2.008438E-3,6.929481E-2,0E0,0E0,0E0,0E0,0E0,0E0,0E0,0E0],"parents":[2147483647,0,0,1,1,2,2,3,3,4,4,5,5,6,6],"right_children":[2,4,6,8,10,12,14,-1,-1,-1,-1,-1,-1,-1,-1],"split_conditions":[8.940409E-2,9.384722E-2,2.2494152E-2,-5.7502376E-4,-2.4438913E-1,-3.4024425E-2,-2.9546567E-3,4.2469252E-4,-1.7725488E-3,4.7544516E-3,2.6772383E-3,-4.012138E-3,-5.939534E-3,-1.9754746E-3,-3.5199441E-3],"split_indices":[25,15,0,4,22,1,13,0,0,0,0,0,0,0,0],"split_type":[0,0,0,0,0,0,0,0,0,0,0,0,0,0,0],"sum_hessian":[1.024E3,7.87E2,2.37E2,4.47E2,3.4E2,1.6E2,7.7E1,3.78E2,6.9E1,8E1,2.6E2,9E0,1.51E2,6.1E1,1.6E1],"tree_param":{"num_deleted":"0","num_feature":"32","num_nodes":"15","size_leaf_vector":"1"}},{"base_weights":[-2.2949981E-4,7.1409754E-2,-2.374207E-1,1.5496816E-1,4.0378355E-4,-2.9408526E-1,-1.1741535E-1,4.481682E-3,2.514135E-3,-3.3754623E-3,1.9120068E-4,-4.104703E-3,-5.8363527E-3,-1.3161176E-3,-2.6777866E-3],"categories":[],"categories_nodes":[],"categories_segments":[],"categories_sizes":[],"default_left":[0,0,0,0,0,0,0,0,0,0,0,0,0,0,0],"id":29,"left_children":[1,3,5,7,9,11,13,-1,-1,-1,-1,-1,-1,-1,-1],"loss_changes":[1.743396E1,4.675256E0,1.5838833E0,6.7811775E-1,6.960121E-1,1.3980865E-3,6.761098E-2,0E0,0E0,0E0,0E0,0E0,0E0,0E0,0E0],"parents":[2147483647,0,0,1,1,2,2,3,3,4,4,5,5,6,6],"right_children":[2,4,6,8,10,12,14,-1,-1,-1,-1,-1,-1,-1,-1],"split_conditions":[8.940409E-2,-4.444835E-2,2.2494152E-2,-1.2585825E-1,-4.0806185E-2,-2.5180893E-2,-6.741818E-2,4.481682E-3,2.514135E-3,-3.3754623E-3,1.9120068E-4,-4.104703E-3,-5.8363527E-3,-1.3161176E-3,-2.6777866E-3],"split_indices":[25,4,0,17,12,1,1,0,0,0,0,0,0,0,0],"split_type":[0,0,0,0,0,0,0,0,0,0,0,0,0,0,0],"sum_hessian":[1.024E3,7.87E2,2.37E2,3.61E2,4.26E2,1.6E2,7.7E1,9.2E1,2.69E2,2.1E1,4.05E2,1.1E1,1.49E2,2.3E1,5.4E1],"tree_param":{"num_deleted":"0","num_feature":"32","num_nodes":"15","size_leaf_vector":"1"}},{"base_weights":[-2.3488933E-4,7.001995E-2,-2.3284237E-1,3.8320778E-3,1.5632394E-1,-2.8840348E-1,-1.1517342E-1,4.225913E-4,-1.6837184E-3,4.5767697E-3,2.5703022E-3,-3.8694672E-3,-5.711507E-3,-3.4060217E-3,-1.8959268E-3],"categories":[],"categories_nodes":[],"categories_segments":[],"categories_sizes":[],"default_left":[0,0,0,0,0,0,0,0,0,0,0,0,0,0,0],"id":30,"left_children":[1,3,5,7,9,11,13,-1,-1,-1,-1,-1,-1,-1,-1],"loss_changes":[1.6766651E1,4.5006757E0,1.5227842E0,7.185363E-1,6.286802E-1,8.0394745E-4,6.666756E-2,0E0,0E0,0E0,0E0,0E0,0E0,0E0,0E0],"parents":[2147483647,0,0,1,1,2,2,3,3,4,4,5,5,6,6],"right_children":[2,4,6,8,10,12,14,-1,-1,-1,-1,-1,-1,-1,-1],"split_conditions":[8.940409E-2,-1.4407968E-2,2.2494152E-2,2.9829282E-2,-2.4438913E-1,-3.4024425E-2,1.05502926E-1,4.225913E-4,-1.6837184E-3,4.5767697E-3,2.5703022E-3,-3.8694672E-3,-5.711507E-3,-3.4060217E-3,-1.8959268E-3],"split_indices":[25,3,0,22,22,1,27,0,0,0,0,0,0,0,0],"split_type":[0,0,0,0,0,0,0,0,0,0,0,0,0,0,0],"sum_hessian":[1.024E3,7.87E2,2.37E2,4.46E2,3.41E2,1.6E2,7.7E1,3.73E2,7.3E1,8E1,2.61E2,9E0,1.51E2,1.6E1,6.1E1],"tree_param":{"num_deleted":"0","num_feature":"32","num_nodes":"15","size_leaf_vector":"1"}},{"base_weights":[-2.3908343E-4,6.716069E-2,-2.3349985E-1,1.4835367E-1,-1.2490185E-3,-2.8283042E-1,-1.1670386E-1,4.4884877E-3,2.4333668E-3,-3.2662647E-3,1.8225607E-4,-3.9559486E-3,-5.612325E-3,-1.975569E-3,-3.4587898E-3],"categories":[],"categories_nodes":[],"categories_segments":[],"categories_sizes":[],"default_left":[0,0,0,0,0,0,0,0,0,0,0,0,0,0,0],"id":31,"left_children":[1,3,5,7,9,11,13,-1,-1,-1,-1,-1,-1,-1,-1],"loss_changes":[1.6130447E1,4.421478E0,1.2921629E0,6.7591953E-1,7.620726E-1,4.2247772E-4,4.7822952E-2,0E0,0E0,0E0,0E0,0E0,0E0,0E0,0E0],"parents":[2147483647,0,0,1,1,2,2,3,3,4,4,5,5,6,6],"right_children":[2,4,6,8,10,12,14,-1,-1,-1,-1,-1,-1,-1,-1],"split_conditions":[8.999474E-2,-2.077289E-1,2.2494152E-2,-2.4438913E-1,-4.0806185E-2,-2.5180893E-2,-2.9546567E-3,4.4884877E-3,2.4333668E-3,-3.2662647E-3,1.8225607E-4,-3.9559486E-3,-5.612325E-3,-1.975569E-3,-3.4587898E-3],"split_indices":[25,22,0,22,12,1,13,0,0,0,0,0,0,0,0],"split_type":[0,0,0,0,0,0,0,0,0,0,0,0,0,0,0],"sum_hessian":[1.024E3,7.95E2,2.29E2,3.63E2,4.32E2,1.6E2,6.9E1,8E1,2.83E2,2.5E1,4.07E2,1.1E1,1.49E2,5.7E1,1.2E1],"tree_param":{"num_deleted":"0","num_feature":"32","num_nodes":"15","size_leaf_vector":"1"}},{"base_weights":[-2.4530315E-4,5.3192805E-2,-2.6932046E-1,-1.4989936E-2,1.4279227E-1,-1.5126383E-1,-5.4802415E-3,-3.0765957E-3,-3.676011E-5,4.2310413E-3,2.2962359E-3,-1.942204E-3,-3.468392E-3],"categories":[],"categories_nodes":[],"categories_segments":[],"categories_sizes":[],"default_left":[0,0,0,0,0,0,0,0,0,0,0,0,0],"id":32,"left_children":[1,3,5,7,9,11,-1,-1,-1,-1,-1,-1,-1],"loss_changes":[1.4752665E1,5.2315617E0,1.8400669E-1,9.0960425E-1,6.636019E-1,5.531132E-3,0E0,0E0,0E0,0E0,0E0,0E0,0E0],"parents":[2147483647,0,0,1,1,2,2,3,3,4,4,5,5],"right_children":[2,4,6,8,10,12,-1,-1,-1,-1,-1,-1,-1],"split_conditions":[1.4589563E-1,8.433373E-2,-5.4410495E-2,-3.6155503E-2,-1.2585825E-1,-6.926497E-2,-5.4802415E-3,-3.0765957E-3,-3.676011E-5,4.2310413E-3,2.2962359E-3,-1.942204E-3,-3.468392E-3],"split_indices":[27,15,2,12,17,2,0,0,0,0,0,0,0],"split_type":[0,0,0,0,0,0,0,0,0,0,0,0,0],"sum_hessian":[1.024E3,8.55E2,1.69E2,4.86E2,3.69E2,1.6E1,1.53E2,4E1,4.46E2,9.2E1,2.77E2,7E0,9E0],"tree_param":{"num_deleted":"0","num_feature":"32","num_nodes":"13","size_leaf_vector":"1"}},{"base_weights":[-2.4780852E-4,6.4711735E-2,-2.2506323E-1,2.5391907E-3,1.4723745E-1,-5.312351E-3,-1.1387648E-1,-2.7408395E-3,2.6007238E-4,4.3207626E-3,2.417802E-3,-3.3501042E-3,-1.9332855E-3],"categories":[],"categories_nodes":[],"categories_segments":[],"categories_sizes":[],"default_left":[0,0,0,0,0,0,0,0,0,0,0,0,0],"id":33,"left_children":[1,3,5,7,9,-1,11,-1,-1,-1,-1,-1,-1],"loss_changes":[1.4983568E1,4.08377E0,1.1695251E0,7.024918E-1,5.6579113E-1,0E0,4.310423E-2,0E0,0E0,0E0,0E0,0E0,0E0],"parents":[2147483647,0,0,1,1,2,2,3,3,4,4,6,6],"right_children":[2,4,6,8,10,-1,12,-1,-1,-1,-1,-1,-1],"split_conditions":[8.999474E-2,9.384722E-2,2.2494152E-2,5.304935E-3,-2.4438913E-1,-5.312351E-3,1.05502926E-1,-2.7408395E-3,2.6007238E-4,4.3207626E-3,2.417802E-3,-3.3501042E-3,-1.9332855E-3],"split_indices":[25,15,0,18,22,0,27,0,0,0,0,0,0],"split_type":[0,0,0,0,0,0,0,0,0,0,0,0,0],"sum_hessian":[1.024E3,7.95E2,2.29E2,4.54E2,3.41E2,1.6E2,6.9E1,3.1E1,4.23E2,8E1,2.61E2,1.2E1,5.7E1],"tree_param":{"num_deleted":"0","num_feature":"32","num_nodes":"13","size_leaf_vector":"1"}},{"base_weights":[-2.491516E-4,6.345325E-2,-2.2071378E-1,-1.3710507E-3,1.396167E-1,-5.218743E-3,-1.1281507E-1,-3.0956818E-3,1.6981995E-4,4.237419E-3,2.2893539E-3,-1.9265751E-3,-3.2897089E-3],"categories":[],"categories_nodes":[],"categories_segments":[],"categories_sizes":[],"default_left":[0,0,0,0,0,0,0,0,0,0,0,0,0],"id":34,"left_children":[1,3,5,7,9,-1,11,-1,-1,-1,-1,-1,-1],"loss_changes":[1.4409234E1,3.930236E0,1.1238451E0,6.83128E-1,6.085892E-1,0E0,3.9344847E-2,0E0,0E0,0E0,0E0,0E0,0E0],"parents":[2147483647,0,0,1,1,2,2,3,3,4,4,6,6],"right_children":[2,4,6,8,10,-1,12,-1,-1,-1,-1,-1,-1],"split_conditions":[8.999474E-2,8.433373E-2,-4.2153373E-2,-4.0806185E-2,-2.4438913E-1,-5.218743E-3,-2.9546567E-3,-3.0956818E-3,1.6981995E-4,4.237419E-3,2.2893539E-3,-1.9265751E-3,-3.2897089E-3],"split_indices":[25,15,13,12,22,0,13,0,0,0,0,0,0],"split_type":[0,0,0,0,0,0,0,0,0,0,0,0,0],"sum_hessian":[1.024E3,7.95E2,2.29E2,4.3E2,3.65E2,1.59E2,7E1,2.5E1,4.05E2,8E1,2.85E2,5.8E1,1.2E1],"tree_param":{"num_deleted":"0","num_feature":"32","num_nodes":"13","size_leaf_vector":"1"}},{"base_weights":[-2.5094993E-4,6.361993E-2,-2.1172152E-1,3.6628866E-3,1.422039E-1,-2.6156214E-1,-1.06130995E-1,4.0238083E-4,-1.7207692E-3,3.9944644E-3,2.3114968E-3,-3.6267594E-3,-5.192826E-3,-1.1799871E-3,-2.4246424E-3],"categories":[],"categories_nodes":[],"categories_segments":[],"categories_sizes":[],"default_left":[0,0,0,0,0,0,0,0,0,0,0,0,0,0,0],"id":35,"left_children":[1,3,5,7,9,11,13,-1,-1,-1,-1,-1,-1,-1,-1],"loss_changes":[1.385795E1,3.7122684E0,1.224762E0,6.982834E-1,4.8263693E-1,3.4513474E-3,5.6741714E-2,0E0,0E0,0E0,0E0,0E0,0E0,0E0,0E0],"parents":[2147483647,0,0,1,1,2,2,3,3,4,4,5,5,6,6],"right_children":[2,4,6,8,10,12,14,-1,-1,-1,-1,-1,-1,-1,-1],"split_conditions":[8.940409E-2,9.384722E-2,2.2494152E-2,-5.7502376E-4,-1.2585825E-1,-2.5180893E-2,-6.741818E-2,4.0238083E-4,-1.7207692E-3,3.9944644E-3,2.3114968E-3,-3.6267594E-3,-5.192826E-3,-1.1799871E-3,-2.4246424E-3],"split_indices":[25,15,0,4,17,1,1,0,0,0,0,0,0,0,0],"split_type":[0,0,0,0,0,0,0,0,0,0,0,0,0,0,0],"sum_hessian":[1.024E3,7.87E2,2.37E2,4.47E2,3.4E2,1.6E2,7.7E1,3.78E2,6.9E1,9.2E1,2.48E2,1.1E1,1.49E2,2.3E1,5.4E1],"tree_param":{"num_deleted":"0","num_feature":"32","num_nodes":"15","size_leaf_vector":"1"}},{"base_weights":[-2.5330385E-4,6.1012886E-2,-2.1228649E-1,-1.375347E-3,1.343143E-1,-2.565086E-1,-1.0754302E-1,-3.0366099E-3,1.6594795E-4,4.0790397E-3,2.201686E-3,-5.564156E-3,-4.694078E-3,-3.1866918E-3,-1.8206271E-3],"categories":[],"categories_nodes":[],"categories_segments":[],"categories_sizes":[],"default_left":[0,0,0,0,0,0,0,0,0,0,0,0,0,0,0],"id":36,"left_children":[1,3,5,7,9,11,13,-1,-1,-1,-1,-1,-1,-1,-1],"loss_changes":[1.3328179E1,3.640408E0,1.0377684E0,6.5704656E-1,5.6527233E-1,5.387306E-3,4.0554225E-2,0E0,0E0,0E0,0E0,0E0,0E0,0E0,0E0],"parents":[2147483647,0,0,1,1,2,2,3,3,4,4,5,5,6,6],"right_children":[2,4,6,8,10,12,14,-1,-1,-1,-1,-1,-1,-1,-1],"split_conditions":[8.999474E-2,8.433373E-2,2.2494152E-2,-4.0806185E-2,-2.4438913E-1,-5.3590667E-2,1.05502926E-1,-3.0366099E-3,1.6594795E-4,4.0790397E-3,2.201686E-3,-5.564156E-3,-4.694078E-3,-3.1866918E-3,-1.8206271E-3],"split_indices":[25,15,0,12,22,3,27,0,0,0,0,0,0,0,0],"split_type":[0,0,0,0,0,0,0,0,0,0,0,0,0,0,0],"sum_hessian":[1.024E3,7.95E2,2.29E2,4.3E2,3.65E2,1.6E2,6.9E1,2.5E1,4.05E2,8E1,2.85E2,5.2E1,1.08E2,1.2E1,5.7E1],"tree_param":{"num_deleted":"0","num_feature":"32","num_nodes":"15","size_leaf_vector":"1"}},{"base_weights":[-2.5992285E-4,6.1172396E-2,-2.0365658E-1,3.4638902E-3,1.3680945E-1,-2.5156263E-1,-1.02162614E-1,4.0339076E-4,-1.634651E-3,4.0003587E-3,2.2493987E-3,-5.4575377E-3,-4.603243E-3,-1.6260506E-3,-2.8611321E-3],"categories":[],"categories_nodes":[],"categories_segments":[],"categories_sizes":[],"default_left":[0,0,0,0,0,0,0,0,0,0,0,0,0,0,0],"id":37,"left_children":[1,3,5,7,9,11,13,-1,-1,-1,-1,-1,-1,-1,-1],"loss_changes":[1.2819964E1,3.4390688E0,1.1314974E0,6.730121E-1,4.7820473E-1,5.3396225E-3,5.31767E-2,0E0,0E0,0E0,0E0,0E0,0E0,0E0,0E0],"parents":[2147483647,0,0,1,1,2,2,3,3,4,4,5,5,6,6],"right_children":[2,4,6,8,10,12,14,-1,-1,-1,-1,-1,-1,-1,-1],"split_conditions":[8.940409E-2,9.384722E-2,2.2494152E-2,2.9829282E-2,-2.4438913E-1,-5.3590667E-2,-4.6196883E-3,4.0339076E-4,-1.634651E-3,4.0003587E-3,2.2493987E-3,-5.4575377E-3,-4.603243E-3,-1.6260506E-3,-2.8611321E-3],"split_indices":[25,15,0,22,22,3,13,0,0,0,0,0,0,0,0],"split_type":[0,0,0,0,0,0,0,0,0,0,0,0,0,0,0],"sum_hessian":[1.024E3,7.87E2,2.37E2,4.47E2,3.4E2,1.6E2,7.7E1,3.74E2,7.3E1,8E1,2.6E2,5.2E1,1.08E2,5.6E1,2.1E1],"tree_param":{"num_deleted":"0","num_feature":"32","num_nodes":"15","size_leaf_vector":"1"}},{"base_weights":[-2.6413964E-4,5.867173E-2,-2.0423236E-1,-1.3679919E-3,1.2921394E-1,-2.471661E-1,-1.04603745E-1,-2.977352E-3,1.6230559E-4,3.9231954E-3,2.1183498E-3,-5.352962E-3,-4.5244866E-3,-1.7803113E-3,-3.0776623E-3],"categories":[],"categories_nodes":[],"categories_segments":[],"categories_sizes":[],"default_left":[0,0,0,0,0,0,0,0,0,0,0,0,0,0,0],"id":38,"left_children":[1,3,5,7,9,11,13,-1,-1,-1,-1,-1,-1,-1,-1],"loss_changes":[1.2333554E1,3.3715036E0,9.579544E-1,6.3149035E-1,5.22429E-1,3.2644272E-3,3.6217332E-2,0E0,0E0,0E0,0E0,0E0,0E0,0E0,0E0],"parents":[2147483647,0,0,1,1,2,2,3,3,4,4,5,5,6,6],"right_children":[2,4,6,8,10,12,14,-1,-1,-1,-1,-1,-1,-1,-1],"split_conditions":[8.999474E-2,8.433373E-2,-4.2153373E-2,-4.0806185E-2,-2.4438913E-1,-5.3590667E-2,-2.9546567E-3,-2.977352E-3,1.6230559E-4,3.9231954E-3,2.1183498E-3,-5.352962E-3,-4.5244866E-3,-1.7803113E-3,-3.0776623E-3],"split_indices":[25,15,13,12,22,3,13,0,0,0,0,0,0,0,0],"split_type":[0,0,0,0,0,0,0,0,0,0,0,0,0,0,0],"sum_hessian":[1.024E3,7.95E2,2.29E2,4.3E2,3.65E2,1.59E2,7E1,2.5E1,4.05E2,8E1,2.85E2,5.2E1,1.07E2,5.8E1,1.2E1],"tree_param":{"num_deleted":"0","num_feature":"32","num_nodes":"15","size_leaf_vector":"1"}},{"base_weights":[-2.7021134E-4,5.752992E-2,-2.0030774E-1,2.115041E-3,1.3108617E-1,-2.4196514E-1,-1.0163417E-1,3.5017933E-4,-1.6624926E-3,3.8475203E-3,2.1523559E-3,-3.3188495E-3,-4.806659E-3,-3.0221785E-3,-1.7182239E-3],"categories":[],"categories_nodes":[],"categories_segments":[],"categories_sizes":[],"default_left":[0,0,0,0,0,0,0,0,0,0,0,0,0,0,0],"id":39,"left_children":[1,3,5,7,9,11,13,-1,-1,-1,-1,-1,-1,-1,-1],"loss_changes":[1.1862774E1,3.244307E0,9.208193E-1,6.292905E-1,4.489932E-1,6.296158E-3,3.7155688E-2,0E0,0E0,0E0,0E0,0E0,0E0,0E0,0E0],"parents":[2147483647,0,0,1,1,2,2,3,3,4,4,5,5,6,6],"right_children":[2,4,6,8,10,12,14,-1,-1,-1,-1,-1,-1,-1,-1],"split_conditions":[8.999474E-2,9.384722E-2,2.2494152E-2,3.0647973E-2,-2.4438913E-1,-2.5180893E-2,1.05502926E-1,3.5017933E-4,-1.6624926E-3,3.8475203E-3,2.1523559E-3,-3.3188495E-3,-4.806659E-3,-3.0221785E-3,-1.7182239E-3],"split_indices":[25,15,0,22,22,1,27,0,0,0,0,0,0,0,0],"split_type":[0,0,0,0,0,0,0,0,0,0,0,0,0,0,0],"sum_hessian":[1.024E3,7.95E2,2.29E2,4.54E2,3.41E2,1.6E2,6.9E1,3.85E2,6.9E1,8E1,2.61E2,1.1E1,1.49E2,1.2E1,5.7E1],"tree_param":{"num_deleted":"0","num_feature":"32","num_nodes":"15","size_leaf_vector":"1"}},{"base_weights":[-2.729095E-4,5.7695664E-2,-1.9220132E-1,3.1018935E-3,1.2888198E-1,-2.3729E-1,-9.666957E-2,3.843089E-4,-1.5763788E-3,3.7733056E-3,2.1191072E-3,-5.1582865E-3,-4.3370225E-3,-1.0521497E-3,-2.2183696E-3],"categories":[],"categories_nodes":[],"categories_segments":[],"categories_sizes":[],"default_left":[0,0,0,0,0,0,0,0,0,0,0,0,0,0,0],"id":40,"left_children":[1,3,5,7,9,11,13,-1,-1,-1,-1,-1,-1,-1,-1],"loss_changes":[1.14150505E1,3.0620277E0,1.002223E0,6.2262034E-1,4.2730713E-1,7.098198E-3,5.0352633E-2,0E0,0E0,0E0,0E0,0E0,0E0,0E0,0E0],"parents":[2147483647,0,0,1,1,2,2,3,3,4,4,5,5,6,6],"right_children":[2,4,6,8,10,12,14,-1,-1,-1,-1,-1,-1,-1,-1],"split_conditions":[8.940409E-2,-1.4407968E-2,2.2494152E-2,2.9829282E-2,-2.4438913E-1,-5.3590667E-2,-6.741818E-2,3.843089E-4,-1.5763788E-3,3.7733056E-3,2.1191072E-3,-5.1582865E-3,-4.3370225E-3,-1.0521497E-3,-2.2183696E-3],"split_indices":[25,3,0,22,22,3,1,0,0,0,0,0,0,0,0],"split_type":[0,0,0,0,0,0,0,0,0,0,0,0,0,0,0],"sum_hessian":[1.024E3,7.87E2,2.37E2,4.46E2,3.41E2,1.6E2,7.7E1,3.73E2,7.3E1,8E1,2.61E2,5.2E1,1.08E2,2.3E1,5.4E1],"tree_param":{"num_deleted":"0","num_feature":"32","num_nodes":"15","size_leaf_vector":"1"}},{"base_weights":[-2.754477E-4,5.657482E-2,-1.8850124E-1,-2.4813597E-4,1.22427866E-1,-2.3271465E-1,-9.4823524E-2,3.097326E-4,-1.6001405E-3,2.021337E-3,3.6423039E-3,-5.059445E-3,-4.2530973E-3,-1.5011327E-3,-2.6765992E-3],"categories":[],"categories_nodes":[],"categories_segments":[],"categories_sizes":[],"default_left":[0,0,0,0,0,0,0,0,0,0,0,0,0,0,0],"id":41,"left_children":[1,3,5,7,9,11,13,-1,-1,-1,-1,-1,-1,-1,-1],"loss_changes":[1.09788685E1,2.9486985E0,9.636841E-1,5.591576E-1,4.2336845E-1,6.966591E-3,4.86238E-2,0E0,0E0,0E0,0E0,0E0,0E0,0E0,0E0],"parents":[2147483647,0,0,1,1,2,2,3,3,4,4,5,5,6,6],"right_children":[2,4,6,8,10,12,14,-1,-1,-1,-1,-1,-1,-1,-1],"split_conditions":[8.940409E-2,8.433373E-2,2.2494152E-2,-5.7502376E-4,1.1610788E-1,-5.3590667E-2,-4.6196883E-3,3.097326E-4,-1.6001405E-3,2.021337E-3,3.6423039E-3,-5.059445E-3,-4.2530973E-3,-1.5011327E-3,-2.6765992E-3],"split_indices":[25,15,0,4,15,3,13,0,0,0,0,0,0,0,0],"split_type":[0,0,0,0,0,0,0,0,0,0,0,0,0,0,0],"sum_hessian":[1.024E3,7.87E2,2.37E2,4.23E2,3.64E2,1.6E2,7.7E1,3.54E2,6.9E1,2.83E2,8.1E1,5.2E1,1.08E2,5.6E1,2.1E1],"tree_param":{"num_deleted":"0","num_feature":"32","num_nodes":"15","size_leaf_vector":"1"}},{"base_weights":[-2.7896368E-4,5.3034518E-2,-1.9335896E-1,-2.4744722E-3,1.19137794E-1,-4.514659E-3,-1.06181815E-1,-2.9255657E-3,1.4034733E-4,1.5971558E-3,2.9980799E-3,-2.541145E-3,-1.6255804E-3],"categories":[],"categories_nodes":[],"categories_segments":[],"categories_sizes":[],"default_left":[0,0,0,0,0,0,0,0,0,0,0,0,0],"id":42,"left_children":[1,3,5,7,9,-1,11,-1,-1,-1,-1,-1,-1],"loss_changes":[1.0561364E1,2.950433E0,7.070942E-1,6.244528E-1,4.5871544E-1,0E0,2.706343E-2,0E0,0E0,0E0,0E0,0E0,0E0],"parents":[2147483647,0,0,1,1,2,2,3,3,4,4,6,6],"right_children":[2,4,6,8,10,-1,12,-1,-1,-1,-1,-1,-1],"split_conditions":[9.0847515E-2,8.433373E-2,-4.9519017E-2,-4.0806185E-2,1.1008767E-1,-4.514659E-3,-3.0319301E-2,-2.9255657E-3,1.4034733E-4,1.5971558E-3,2.9980799E-3,-2.541145E-3,-1.6255804E-3],"split_indices":[25,15,13,12,10,0,12,0,0,0,0,0,0],"split_type":[0,0,0,0,0,0,0,0,0,0,0,0,0],"sum_hessian":[1.024E3,8.03E2,2.21E2,4.37E2,3.66E2,1.53E2,6.8E1,2.6E1,4.11E2,1.77E2,1.89E2,3.1E1,3.7E1],"tree_param":{"num_deleted":"0","num_feature":"32","num_nodes":"13","size_leaf_vector":"1"}},{"base_weights":[-2.8022475E-4,5.4408036E-2,-1.8134774E-1,2.985735E-3,1.2180623E-1,-2.2382674E-1,-9.134177E-2,-1.4755832E-3,3.8064484E-4,3.5739457E-3,1.9989046E-3,-3.0473066E-3,-4.4481577E-3,-2.0982784E-3,-9.891876E-4],"categories":[],"categories_nodes":[],"categories_segments":[],"categories_sizes":[],"default_left":[0,0,0,0,0,0,0,0,0,0,0,0,0,0,0],"id":43,"left_children":[1,3,5,7,9,11,13,-1,-1,-1,-1,-1,-1,-1,-1],"loss_changes":[1.0159692E1,2.730663E0,8.8951445E-1,5.8219165E-1,3.8724756E-1,7.375717E-3,4.5647383E-2,0E0,0E0,0E0,0E0,0E0,0E0,0E0,0E0],"parents":[2147483647,0,0,1,1,2,2,3,3,4,4,5,5,6,6],"right_children":[2,4,6,8,10,12,14,-1,-1,-1,-1,-1,-1,-1,-1],"split_conditions":[8.940409E-2,9.384722E-2,2.2494152E-2,-6.985354E-2,-2.4438913E-1,-4.5765437E-2,5.2681766E-2,-1.4755832E-3,3.8064484E-4,3.5739457E-3,1.9989046E-3,-3.0473066E-3,-4.4481577E-3,-2.0982784E-3,-9.891876E-4],"split_indices":[25,15,0,10,22,2,10,0,0,0,0,0,0,0,0],"split_type":[0,0,0,0,0,0,0,0,0,0,0,0,0,0,0],"sum_hessian":[1.024E3,7.87E2,2.37E2,4.47E2,3.4E2,1.6E2,7.7E1,7.7E1,3.7E2,8E1,2.6E2,1.1E1,1.49E2,5.4E1,2.3E1],"tree_param":{"num_deleted":"0","num_feature":"32","num_nodes":"15","size_leaf_vector":"1"}},{"base_weights":[-2.8070735E-4,5.3945683E-2,-1.7595513E-1,3.9878455E-3,1.1917301E-1,-2.195019E-1,-8.830895E-2,-1.4471342E-3,4.0090908E-4,4.2239454E-4,2.5587084E-3,-4.790755E-3,-4.002592E-3,-8.34396E-4,-2.10053E-3],"categories":[],"categories_nodes":[],"categories_segments":[],"categories_sizes":[],"default_left":[0,0,0,0,0,0,0,0,0,0,0,0,0,0,0],"id":44,"left_children":[1,3,5,7,9,11,13,-1,-1,-1,-1,-1,-1,-1,-1],"loss_changes":[9.773835E0,2.5542803E0,9.042597E-1,5.7624567E-1,3.898468E-1,1.0193825E-2,6.733972E-2,0E0,0E0,0E0,0E0,0E0,0E0,0E0,0E0],"parents":[2147483647,0,0,1,1,2,2,3,3,4,4,5,5,6,6],"right_children":[2,4,6,8,10,12,14,-1,-1,-1,-1,-1,-1,-1,-1],"split_conditions":[8.9049056E-2,9.384722E-2,2.2494152E-2,-6.985354E-2,-7.1747415E-2,-5.3590667E-2,-6.741818E-2,-1.4471342E-3,4.0090908E-4,4.2239454E-4,2.5587084E-3,-4.790755E-3,-4.002592E-3,-8.34396E-4,-2.10053E-3],"split_indices":[25,15,0,10,4,3,1,0,0,0,0,0,0,0,0],"split_type":[0,0,0,0,0,0,0,0,0,0,0,0,0,0,0],"sum_hessian":[1.024E3,7.83E2,2.41E2,4.44E2,3.39E2,1.6E2,8.1E1,7.7E1,3.67E2,3.7E1,3.02E2,5.2E1,1.08E2,2.5E1,5.6E1],"tree_param":{"num_deleted":"0","num_feature":"32","num_nodes":"15","size_leaf_vector":"1"}},{"base_weights":[-2.8478177E-4,4.1197047E-2,-2.091563E-1,1.10353954E-1,-1.2693076E-2,-1.1626575E-1,-4.258599E-3,2.8904686E-3,1.4904472E-3,-2.6838335E-3,-2.137932E-5,-1.5124129E-3,-2.6502435E-3],"categories":[],"categories_nodes":[],"categories_segments":[],"categories_sizes":[],"default_left":[0,0,0,0,0,0,0,0,0,0,0,0,0],"id":45,"left_children":[1,3,5,7,9,11,-1,-1,-1,-1,-1,-1,-1],"loss_changes":[8.889599E0,3.191605E0,1.1512804E-1,4.6924353E-1,6.971254E-1,2.3187846E-3,0E0,0E0,0E0,0E0,0E0,0E0,0E0],"parents":[2147483647,0,0,1,1,2,2,3,3,4,4,5,5],"right_children":[2,4,6,8,10,12,-1,-1,-1,-1,-1,-1,-1],"split_conditions":[6.1972495E-2,-4.387613E-2,-5.4410495E-2,-2.3216021E-1,-3.6155503E-2,-6.926497E-2,-4.258599E-3,2.8904686E-3,1.4904472E-3,-2.6838335E-3,-2.137932E-5,-1.5124129E-3,-2.6502435E-3],"split_indices":[21,4,2,22,12,2,0,0,0,0,0,0,0],"split_type":[0,0,0,0,0,0,0,0,0,0,0,0,0],"sum_hessian":[1.024E3,8.55E2,1.69E2,3.74E2,4.81E2,1.6E1,1.53E2,1.76E2,1.98E2,4E1,4.41E2,7E0,9E0],"tree_param":{"num_deleted":"0","num_feature":"32","num_nodes":"13","size_leaf_vector":"1"}},{"base_weights":[-2.8579813E-4,5.2539356E-2,-1.6777903E-1,4.502779E-3,1.1501613E-1,-2.1150097E-1,-8.544236E-2,-1.4188213E-3,4.0969197E-4,3.402989E-3,1.8758632E-3,-4.617354E-3,-3.8535588E-3,-7.571849E-4,-2.0884557E-3],"categories":[],"categories_nodes":[],"categories_segments":[],"categories_sizes":[],"default_left":[0,0,0,0,0,0,0,0,0,0,0,0,0,0,0],"id":46,"left_children":[1,3,5,7,9,11,13,-1,-1,-1,-1,-1,-1,-1,-1],"loss_changes":[9.0778675E0,2.3403955E0,8.675089E-1,5.633161E-1,3.6407185E-1,9.922028E-3,8.312422E-2,0E0,0E0,0E0,0E0,0E0,0E0,0E0,0E0],"parents":[2147483647,0,0,1,1,2,2,3,3,4,4,5,5,6,6],"right_children":[2,4,6,8,10,12,14,-1,-1,-1,-1,-1,-1,-1,-1],"split_conditions":[8.8807575E-2,9.384722E-2,-4.2153373E-2,-6.985354E-2,-2.4438913E-1,-5.3590667E-2,-6.741818E-2,-1.4188213E-3,4.0969197E-4,3.402989E-3,1.8758632E-3,-4.617354E-3,-3.8535588E-3,-7.571849E-4,-2.0884557E-3],"split_indices":[25,15,13,10,22,3,1,0,0,0,0,0,0,0,0],"split_type":[0,0,0,0,0,0,0,0,0,0,0,0,0,0,0],"sum_hessian":[1.024E3,7.79E2,2.45E2,4.41E2,3.38E2,1.59E2,8.6E1,7.7E1,3.64E2,8E1,2.58E2,5.2E1,1.07E2,2.8E1,5.8E1],"tree_param":{"num_deleted":"0","num_feature":"32","num_nodes":"15","size_leaf_vector":"1"}},{"base_weights":[-2.87095E-4,5.1518723E-2,-1.6454828E-1,1.3819815E-3,1.0911001E-1,-2.0704204E-1,-8.3082646E-2,2.5723306E-3,-1.553537E-4,3.3373483E-3,1.7781098E-3,-4.528878E-3,-3.7704932E-3,-7.429069E-4,-2.0344981E-3],"categories":[],"categories_nodes":[],"categories_segments":[],"categories_sizes":[],"default_left":[0,0,0,0,0,0,0,0,0,0,0,0,0,0,0],"id":47,"left_children":[1,3,5,7,9,11,13,-1,-1,-1,-1,-1,-1,-1,-1],"loss_changes":[8.730904E0,2.252052E0,8.3439684E-1,5.0967723E-1,3.8953304E-1,1.116991E-2,7.773268E-2,0E0,0E0,0E0,0E0,0E0,0E0,0E0,0E0],"parents":[2147483647,0,0,1,1,2,2,3,3,4,4,5,5,6,6],"right_children":[2,4,6,8,10,12,14,-1,-1,-1,-1,-1,-1,-1,-1],"split_conditions":[8.8807575E-2,8.433373E-2,2.2494152E-2,5.1592935E-2,-2.4438913E-1,-5.3590667E-2,-6.741818E-2,2.5723306E-3,-1.553537E-4,3.3373483E-3,1.7781098E-3,-4.528878E-3,-3.7704932E-3,-7.429069E-4,-2.0344981E-3],"split_indices":[25,15,0,0,22,3,1,0,0,0,0,0,0,0,0],"split_type":[0,0,0,0,0,0,0,0,0,0,0,0,0,0,0],"sum_hessian":[1.024E3,7.79E2,2.45E2,4.17E2,3.62E2,1.6E2,8.5E1,2.7E1,3.9E2,8E1,2.82E2,5.2E1,1.08E2,2.8E1,5.7E1],"tree_param":{"num_deleted":"0","num_feature":"32","num_nodes":"15","size_leaf_vector":"1"}},{"base_weights":[-2.849393E-4,4.8349373E-2,-1.6860071E-1,-2.0666055E-3,1.0552906E-1,-2.0573282E-1,-9.2146866E-2,-2.6919008E-3,1.4675086E-4,2.7361328E-3,1.4439485E-3,-4.740248E-3,-3.8481958E-3,-1.3645585E-3,-2.2102704E-3],"categories":[],"categories_nodes":[],"categories_segments":[],"categories_sizes":[],"default_left":[0,0,0,0,0,0,0,0,0,0,0,0,0,0,0],"id":48,"left_children":[1,3,5,7,9,11,13,-1,-1,-1,-1,-1,-1,-1,-1],"loss_changes":[8.398722E0,2.2949033E0,6.339879E-1,5.525458E-1,3.9702892E-1,1.6908646E-3,2.8158903E-2,0E0,0E0,0E0,0E0,0E0,0E0,0E0,0E0],"parents":[2147483647,0,0,1,1,2,2,3,3,4,4,5,5,6,6],"right_children":[2,4,6,8,10,12,14,-1,-1,-1,-1,-1,-1,-1,-1],"split_conditions":[8.999474E-2,8.2512125E-2,-4.9519017E-2,-3.8912173E-2,-2.3216021E-1,-5.6442708E-2,5.639889E-2,-2.6919008E-3,1.4675086E-4,2.7361328E-3,1.4439485E-3,-4.740248E-3,-3.8481958E-3,-1.3645585E-3,-2.2102704E-3],"split_indices":[25,15,13,12,22,3,8,0,0,0,0,0,0,0,0],"split_type":[0,0,0,0,0,0,0,0,0,0,0,0,0,0,0],"sum_hessian":[1.024E3,7.95E2,2.29E2,4.23E2,3.72E2,1.53E2,7.6E1,2.7E1,3.96E2,1.76E2,1.96E2,2.4E1,1.29E2,3.9E1,3.7E1],"tree_param":{"num_deleted":"0","num_feature":"32","num_nodes":"15","size_leaf_vector":"1"}},{"base_weights":[-2.896433E-4,3.807686E-2,-1.9347456E-1,-1.21255675E-2,1.01894066E-1,-1.0694145E-1,-2.0177059E-1,-2.5571552E-3,-2.0062658E-5,1.3208449E-3,2.6416553E-3,-1.3783395E-3,-2.4479227E-3,-4.6513733E-3,-3.7736178E-3],"categories":[],"categories_nodes":[],"categories_segments":[],"categories_sizes":[],"default_left":[0,0,0,0,0,0,0,0,0,0,0,0,0,0,0],"id":49,"left_children":[1,3,5,7,9,11,13,-1,-1,-1,-1,-1,-1,-1,-1],"loss_changes":[7.604492E0,2.7436705E0,1.0046244E-1,6.3277775E-1,4.218483E-1,2.52904E-3,1.9044876E-3,0E0,0E0,0E0,0E0,0E0,0E0,0E0,0E0],"parents":[2147483647,0,0,1,1,2,2,3,3,4,4,5,5,6,6],"right_children":[2,4,6,8,10,12,14,-1,-1,-1,-1,-1,-1,-1,-1],"split_conditions":[6.1972495E-2,8.2512125E-2,-3.6941808E-2,-3.6155503E-2,1.1008767E-1,-6.926497E-2,-5.6442708E-2,-2.5571552E-3,-2.0062658E-5,1.3208449E-3,2.6416553E-3,-1.3783395E-3,-2.4479227E-3,-4.6513733E-3,-3.7736178E-3],"split_indices":[21,15,1,12,10,2,3,0,0,0,0,0,0,0,0],"split_type":[0,0,0,0,0,0,0,0,0,0,0,0,0,0,0],"sum_hessian":[1.024E3,8.55E2,1.69E2,4.79E2,3.76E2,1.6E1,1.53E2,4E1,4.39E2,1.87E2,1.89E2,7E0,9E0,2.4E1,1.29E2],"tree_param":{"num_deleted":"0","num_feature":"32","num_nodes":"15","size_leaf_vector":"1"}},{"base_weights":[-2.9458763E-4,3.7337556E-2,-1.8978177E-1,-1.1894127E-2,9.992077E-2,-1.0521526E-1,-1.978847E-1,-2.5084314E-3,-1.9671817E-5,1.2954284E-3,2.590335E-3,-2.4048954E-3,-1.3604844E-3,-3.5851076E-3,-4.22181E-3],"categories":[],"categories_nodes":[],"categories_segments":[],"categories_sizes":[],"default_left":[0,0,0,0,0,0,0,0,0,0,0,0,0,0,0],"id":50,"left_children":[1,3,5,7,9,11,13,-1,-1,-1,-1,-1,-1,-1,-1],"loss_changes":[7.316165E0,2.6385903E0,9.566975E-2,6.08898E-1,4.0545964E-1,2.2548586E-3,6.3085556E-4,0E0,0E0,0E0,0E0,0E0,0E0,0E0,0E0],"parents":[2147483647,0,0,1,1,2,2,3,3,4,4,5,5,6,6],"right_children":[2,4,6,8,10,12,14,-1,-1,-1,-1,-1,-1,-1,-1],"split_conditions":[1.4589563E-1,8.2512125E-2,-3.6941808E-2,-3.6155503E-2,1.1008767E-1,3.0862689E-2,-1.0306212E-1,-2.5084314E-3,-1.9671817E-5,1.2954284E-3,2.590335E-3,-2.4048954E-3,-1.3604844E-3,-3.5851076E-3,-4.22181E-3],"split_indices":[27,15,1,12,10,5,19,0,0,0,0,0,0,0,0],"split_type":[0,0,0,0,0,0,0,0,0,0,0,0,0,0,0],"sum_hessian":[1.024E3,8.55E2,1.69E2,4.79E2,3.76E2,1.6E1,1.53E2,4E1,4.39E2,1.87E2,1.89E2,9E0,7E0,9.2E1,6.1E1],"tree_param":{"num_deleted":"0","num_feature":"32","num_nodes":"15","size_leaf_vector":"1"}},{"base_weights":[-2.987982E-4,4.784078E-2,-1.5293527E-1,4.3018884E-3,1.0446718E-1,-1.9372796E-1,-8.2546115E-2,-1.3953159E-3,3.9991774E-4,2.2943917E-4,2.254652E-3,-4.48501E-3,-3.6207903E-3,-7.232222E-4,-1.989741E-3],"categories":[],"categories_nodes":[],"categories_segments":[],"categories_sizes":[],"default_left":[0,0,0,0,0,0,0,0,0,0,0,0,0,0,0],"id":51,"left_children":[1,3,5,7,9,11,13,-1,-1,-1,-1,-1,-1,-1,-1],"loss_changes":[7.5388684E0,1.922602E0,6.903639E-1,5.4299855E-1,3.4368277E-1,3.8175583E-3,7.718724E-2,0E0,0E0,0E0,0E0,0E0,0E0,0E0,0E0],"parents":[2147483647,0,0,1,1,2,2,3,3,4,4,5,5,6,6],"right_children":[2,4,6,8,10,12,14,-1,-1,-1,-1,-1,-1,-1,-1],"split_conditions":[8.8807575E-2,9.384722E-2,-4.907459E-2,-6.985354E-2,-7.1747415E-2,-5.6442708E-2,-6.741818E-2,-1.3953159E-3,3.9991774E-4,2.2943917E-4,2.254652E-3,-4.48501E-3,-3.6207903E-3,-7.232222E-4,-1.989741E-3],"split_indices":[25,15,13,10,4,3,1,0,0,0,0,0,0,0,0],"split_type":[0,0,0,0,0,0,0,0,0,0,0,0,0,0,0],"sum_hessian":[1.024E3,7.79E2,2.45E2,4.41E2,3.38E2,1.54E2,9.1E1,7.7E1,3.64E2,3.6E1,3.02E2,2.4E1,1.3E2,2.8E1,6.3E1],"tree_param":{"num_deleted":"0","num_feature":"32","num_nodes":"15","size_leaf_vector":"1"}},{"base_weights":[-3.0206915E-4,4.6908345E-2,-1.4999239E-1,4.2156195E-3,1.0243423E-1,-1.8792148E-1,-7.724155E-2,-1.3684145E-3,3.921287E-4,3.079347E-3,1.6554523E-3,-3.3615644E-3,-4.042725E-3,-1.140197E-3,-2.3616916E-3],"categories":[],"categories_nodes":[],"categories_segments":[],"categories_sizes":[],"default_left":[0,0,0,0,0,0,0,0,0,0,0,0,0,0,0],"id":52,"left_children":[1,3,5,7,9,11,13,-1,-1,-1,-1,-1,-1,-1,-1],"loss_changes":[7.2506523E0,1.8485982E0,6.642904E-1,5.222159E-1,3.175199E-1,1.2899876E-2,6.3794434E-2,0E0,0E0,0E0,0E0,0E0,0E0,0E0,0E0],"parents":[2147483647,0,0,1,1,2,2,3,3,4,4,5,5,6,6],"right_children":[2,4,6,8,10,12,14,-1,-1,-1,-1,-1,-1,-1,-1],"split_conditions":[8.8807575E-2,9.384722E-2,2.2494152E-2,-6.985354E-2,-2.4438913E-1,6.8348594E-2,-4.6196883E-3,-1.3684145E-3,3.921287E-4,3.079347E-3,1.6554523E-3,-3.3615644E-3,-4.042725E-3,-1.140197E-3,-2.3616916E-3],"split_indices":[25,15,0,10,22,2,13,0,0,0,0,0,0,0,0],"split_type":[0,0,0,0,0,0,0,0,0,0,0,0,0,0,0],"sum_hessian":[1.024E3,7.79E2,2.45E2,4.41E2,3.38E2,1.6E2,8.5E1,7.7E1,3.64E2,8E1,2.58E2,9.3E1,6.7E1,6.1E1,2.4E1],"tree_param":{"num_deleted":"0","num_feature":"32","num_nodes":"15","size_leaf_vector":"1"}},{"base_weights":[-3.031433E-4,4.4026595E-2,-1.5372126E-1,-1.6589452E-3,9.584065E-2,-1.8670261E-1,-8.576217E-2,-2.6387833E-3,1.3752126E-4,1.260685E-3,2.4537346E-3,-4.325124E-3,-3.4877493E-3,-1.0168921E-3,-1.8880075E-3],"categories":[],"categories_nodes":[],"categories_segments":[],"categories_sizes":[],"default_left":[0,0,0,0,0,0,0,0,0,0,0,0,0,0,0],"id":53,"left_children":[1,3,5,7,9,11,13,-1,-1,-1,-1,-1,-1,-1,-1],"loss_changes":[6.9777765E0,1.8844125E0,4.99506E-1,4.9326116E-1,3.3966184E-1,3.9134026E-3,2.3270011E-2,0E0,0E0,0E0,0E0,0E0,0E0,0E0,0E0],"parents":[2147483647,0,0,1,1,2,2,3,3,4,4,5,5,6,6],"right_children":[2,4,6,8,10,12,14,-1,-1,-1,-1,-1,-1,-1,-1],"split_conditions":[8.999474E-2,8.2512125E-2,-4.9519017E-2,-4.0806185E-2,1.1008767E-1,-5.6442708E-2,4.966069E-2,-2.6387833E-3,1.3752126E-4,1.260685E-3,2.4537346E-3,-4.325124E-3,-3.4877493E-3,-1.0168921E-3,-1.8880075E-3],"split_indices":[25,15,13,12,10,3,8,0,0,0,0,0,0,0,0],"split_type":[0,0,0,0,0,0,0,0,0,0,0,0,0,0,0],"sum_hessian":[1.024E3,7.95E2,2.29E2,4.23E2,3.72E2,1.53E2,7.6E1,2.5E1,3.98E2,1.83E2,1.89E2,2.4E1,1.29E2,2E1,5.6E1],"tree_param":{"num_deleted":"0","num_feature":"32","num_nodes":"15","size_leaf_vector":"1"}},{"base_weights":[-3.064998E-4,4.3168265E-2,-1.5076566E-1,-1.2966967E-3,9.4366565E-2,-1.8310702E-1,-8.412495E-2,-2.0991129E-4,2.4243682E-3,2.8529442E-3,1.4985054E-3,-3.9737877E-3,-3.3344163E-3,-9.979778E-4,-1.8517814E-3],"categories":[],"categories_nodes":[],"categories_segments":[],"categories_sizes":[],"default_left":[0,0,0,0,0,0,0,0,0,0,0,0,0,0,0],"id":54,"left_children":[1,3,5,7,9,11,13,-1,-1,-1,-1,-1,-1,-1,-1],"loss_changes":[6.711214E0,1.8122404E0,4.803033E-1,5.075404E-1,3.262856E-1,4.0683746E-3,2.234304E-2,0E0,0E0,0E0,0E0,0E0,0E0,0E0,0E0],"parents":[2147483647,0,0,1,1,2,2,3,3,4,4,5,5,6,6],"right_children":[2,4,6,8,10,12,14,-1,-1,-1,-1,-1,-1,-1,-1],"split_conditions":[8.999474E-2,8.335822E-2,-4.9519017E-2,-6.5375045E-2,-1.2585825E-1,-5.3590667E-2,4.966069E-2,-2.0991129E-4,2.4243682E-3,2.8529442E-3,1.4985054E-3,-3.9737877E-3,-3.3344163E-3,-9.979778E-4,-1.8517814E-3],"split_indices":[25,15,13,16,17,3,8,0,0,0,0,0,0,0,0],"split_type":[0,0,0,0,0,0,0,0,0,0,0,0,0,0,0],"sum_hessian":[1.024E3,7.95E2,2.29E2,4.26E2,3.69E2,1.53E2,7.6E1,3.97E2,2.9E1,9.2E1,2.77E2,5.2E1,1.01E2,2E1,5.6E1],"tree_param":{"num_deleted":"0","num_feature":"32","num_nodes":"15","size_leaf_vector":"1"}},{"base_weights":[-3.0401442E-4,4.4743557E-2,-1.4013046E-1,4.202334E-3,9.754294E-2,-7.145347E-2,-1.7699541E-1,3.7815876E-4,-1.3874655E-3,1.9339519E-4,2.096457E-3,-1.8304547E-3,-7.043007E-4,-3.7496178E-3,-3.0932839E-3],"categories":[],"categories_nodes":[],"categories_segments":[],"categories_sizes":[],"default_left":[0,0,0,0,0,0,0,0,0,0,0,0,0,0,0],"id":55,"left_children":[1,3,5,7,9,11,13,-1,-1,-1,-1,-1,-1,-1,-1],"loss_changes":[6.4625826E0,1.660658E0,6.202965E-1,5.033017E-1,2.8842568E-1,6.676975E-2,1.4801502E-2,0E0,0E0,0E0,0E0,0E0,0E0,0E0,0E0],"parents":[2147483647,0,0,1,1,2,2,3,3,4,4,5,5,6,6],"right_children":[2,4,6,8,10,12,14,-1,-1,-1,-1,-1,-1,-1,-1],"split_conditions":[8.858744E-2,9.384722E-2,1.04595795E-1,-8.559126E-4,-7.1747415E-2,-2.0739298E-2,-1.8394393E-1,3.7815876E-4,-1.3874655E-3,1.9339519E-4,2.096457E-3,-1.8304547E-3,-7.043007E-4,-3.7496178E-3,-3.0932839E-3],"split_indices":[25,15,25,4,4,3,11,0,0,0,0,0,0,0,0],"split_type":[0,0,0,0,0,0,0,0,0,0,0,0,0,0,0],"sum_hessian":[1.024E3,7.75E2,2.49E2,4.39E2,3.36E2,8.8E1,1.61E2,3.66E2,7.3E1,3.4E1,3.02E2,5.3E1,3.5E1,8.4E1,7.7E1],"tree_param":{"num_deleted":"0","num_feature":"32","num_nodes":"15","size_leaf_vector":"1"}},{"base_weights":[-3.059732E-4,4.387136E-2,-1.3743119E-1,4.1179648E-3,9.564472E-2,-1.739037E-1,-7.0658915E-2,-1.3169807E-3,3.8047187E-4,2.8805172E-3,1.5415563E-3,-3.1054546E-3,-3.7485699E-3,-1.0416977E-3,-2.217849E-3],"categories":[],"categories_nodes":[],"categories_segments":[],"categories_sizes":[],"default_left":[0,0,0,0,0,0,0,0,0,0,0,0,0,0,0],"id":56,"left_children":[1,3,5,7,9,11,13,-1,-1,-1,-1,-1,-1,-1,-1],"loss_changes":[6.2153015E0,1.5967437E0,5.9655E-1,4.849875E-1,2.8036332E-1,1.2729168E-2,6.0821474E-2,0E0,0E0,0E0,0E0,0E0,0E0,0E0,0E0],"parents":[2147483647,0,0,1,1,2,2,3,3,4,4,5,5,6,6],"right_children":[2,4,6,8,10,12,14,-1,-1,-1,-1,-1,-1,-1,-1],"split_conditions":[8.858744E-2,9.384722E-2,2.2494152E-2,-6.985354E-2,-2.4438913E-1,6.8348594E-2,-4.6196883E-3,-1.3169807E-3,3.8047187E-4,2.8805172E-3,1.5415563E-3,-3.1054546E-3,-3.7485699E-3,-1.0416977E-3,-2.217849E-3],"split_indices":[25,15,0,10,22,2,13,0,0,0,0,0,0,0,0],"split_type":[0,0,0,0,0,0,0,0,0,0,0,0,0,0,0],"sum_hessian":[1.024E3,7.75E2,2.49E2,4.39E2,3.36E2,1.6E2,8.9E1,7.7E1,3.62E2,8E1,2.56E2,9.3E1,6.7E1,6.5E1,2.4E1],"tree_param":{"num_deleted":"0","num_feature":"32","num_nodes":"15","size_leaf_vector":"1"}},{"base_weights":[-3.0646325E-4,4.3019038E-2,-1.3478759E-1,4.550146E-3,9.445168E-2,-1.7246754E-1,-7.254613E-2,3.7220743E-4,-1.3367049E-3,1.559967E-4,2.0368001E-3,-4.0289448E-3,-3.2165356E-3,-6.667751E-4,-1.781452E-3],"categories":[],"categories_nodes":[],"categories_segments":[],"categories_sizes":[],"default_left":[0,0,0,0,0,0,0,0,0,0,0,0,0,0,0],"id":57,"left_children":[1,3,5,7,9,11,13,-1,-1,-1,-1,-1,-1,-1,-1],"loss_changes":[5.9779224E0,1.5349302E0,5.738015E-1,4.725505E-1,2.8158498E-1,6.7720413E-3,6.571776E-2,0E0,0E0,0E0,0E0,0E0,0E0,0E0,0E0],"parents":[2147483647,0,0,1,1,2,2,3,3,4,4,5,5,6,6],"right_children":[2,4,6,8,10,12,14,-1,-1,-1,-1,-1,-1,-1,-1],"split_conditions":[8.858744E-2,-1.0634E-2,-4.907459E-2,-8.559126E-4,-7.1747415E-2,-5.6442708E-2,-6.741818E-2,3.7220743E-4,-1.3367049E-3,1.559967E-4,2.0368001E-3,-4.0289448E-3,-3.2165356E-3,-6.667751E-4,-1.781452E-3],"split_indices":[25,3,13,4,4,3,1,0,0,0,0,0,0,0,0],"split_type":[0,0,0,0,0,0,0,0,0,0,0,0,0,0,0],"sum_hessian":[1.024E3,7.75E2,2.49E2,4.44E2,3.31E2,1.54E2,9.5E1,3.71E2,7.3E1,3.4E1,2.97E2,2.4E1,1.3E2,3.2E1,6.3E1],"tree_param":{"num_deleted":"0","num_feature":"32","num_nodes":"15","size_leaf_vector":"1"}},{"base_weights":[-3.0873687E-4,3.9481226E-2,-1.411568E-1,8.775809E-2,-1.4337271E-3,-1.694598E-1,-7.9515405E-2,2.7883877E-3,1.4047149E-3,-2.4662623E-3,1.4622956E-4,-3.953406E-3,-3.1603083E-3,-1.7729929E-3,-1.0869872E-3],"categories":[],"categories_nodes":[],"categories_segments":[],"categories_sizes":[],"default_left":[0,0,0,0,0,0,0,0,0,0,0,0,0,0,0],"id":58,"left_children":[1,3,5,7,9,11,13,-1,-1,-1,-1,-1,-1,-1,-1],"loss_changes":[5.75002E0,1.5803221E0,3.8081312E-1,3.0940294E-1,4.8431802E-1,6.046295E-3,1.4570534E-2,0E0,0E0,0E0,0E0,0E0,0E0,0E0,0E0],"parents":[2147483647,0,0,1,1,2,2,3,3,4,4,5,5,6,6],"right_children":[2,4,6,8,10,12,14,-1,-1,-1,-1,-1,-1,-1,-1],"split_conditions":[9.0508446E-2,-4.416009E-2,-4.9519017E-2,-2.4438913E-1,-3.8912173E-2,-5.6442708E-2,3.8213383E-2,2.7883877E-3,1.4047149E-3,-2.4662623E-3,1.4622956E-4,-3.953406E-3,-3.1603083E-3,-1.7729929E-3,-1.0869872E-3],"split_indices":[25,4,13,22,12,3,10,0,0,0,0,0,0,0,0],"split_type":[0,0,0,0,0,0,0,0,0,0,0,0,0,0,0],"sum_hessian":[1.024E3,7.99E2,2.25E2,3.66E2,4.33E2,1.53E2,7.2E1,8E1,2.86E2,2.8E1,4.05E2,2.4E1,1.29E2,4.7E1,2.5E1],"tree_param":{"num_deleted":"0","num_feature":"32","num_nodes":"15","size_leaf_vector":"1"}},{"base_weights":[-3.106051E-4,4.4051956E-2,-1.2206366E-1,9.835778E-2,1.0886974E-2,-1.6379654E-1,-6.1154004E-2,3.5069233E-3,1.5435144E-3,4.9804343E-4,-1.3137689E-3,-3.4756302E-3,-2.856479E-3,-1.7311855E-3,-3.1314482E-4],"categories":[],"categories_nodes":[],"categories_segments":[],"categories_sizes":[],"default_left":[0,0,0,0,0,0,0,0,0,0,0,0,0,0,0],"id":59,"left_children":[1,3,5,7,9,11,13,-1,-1,-1,-1,-1,-1,-1,-1],"loss_changes":[5.541687E0,1.3533201E0,6.8647337E-1,4.330752E-1,5.3625876E-1,1.42149925E-2,1.3872612E-1,0E0,0E0,0E0,0E0,0E0,0E0,0E0,0E0],"parents":[2147483647,0,0,1,1,2,2,3,3,4,4,5,5,6,6],"right_children":[2,4,6,8,10,12,14,-1,-1,-1,-1,-1,-1,-1,-1],"split_conditions":[8.739658E-2,-5.3389367E-2,-4.044815E-2,-3.3353895E-2,-8.559126E-4,-1.8394393E-1,-1.734959E-2,3.5069233E-3,1.5435144E-3,4.9804343E-4,-1.3137689E-3,-3.4756302E-3,-2.856479E-3,-1.7311855E-3,-3.1314482E-4],"split_indices":[25,4,13,31,4,11,3,0,0,0,0,0,0,0,0],"split_type":[0,0,0,0,0,0,0,0,0,0,0,0,0,0,0],"sum_hessian":[1.024E3,7.51E2,2.73E2,2.84E2,4.67E2,1.61E2,1.12E2,5.3E1,2.31E2,3.94E2,7.3E1,8.4E1,7.7E1,6.9E1,4.3E1],"tree_param":{"num_deleted":"0","num_feature":"32","num_nodes":"15","size_leaf_vector":"1"}},{"base_weights":[-3.0858084E-4,3.0700075E-2,-1.5644448E-1,-1.0090728E-2,8.2553886E-2,-9.338051E-2,-1.6376126E-1,-3.657382E-4,2.3450854E-3,2.9261822E-5,1.8160073E-3,-1.1364166E-3,-2.1064167E-3,-2.5866497E-3,-3.3164902E-3],"categories":[],"categories_nodes":[],"categories_segments":[],"categories_sizes":[],"default_left":[0,0,0,0,0,0,0,0,0,0,0,0,0,0,0],"id":60,"left_children":[1,3,5,7,9,11,13,-1,-1,-1,-1,-1,-1,-1,-1],"loss_changes":[4.967406E0,1.8114085E0,6.3150406E-2,5.4182816E-1,3.1860518E-1,3.9117634E-3,6.1306953E-3,0E0,0E0,0E0,0E0,0E0,0E0,0E0,0E0],"parents":[2147483647,0,0,1,1,2,2,3,3,4,4,5,5,6,6],"right_children":[2,4,6,8,10,12,14,-1,-1,-1,-1,-1,-1,-1,-1],"split_conditions":[6.1972495E-2,8.2512125E-2,-2.9256873E-2,-6.5375045E-2,-7.1747415E-2,-6.926497E-2,-5.4585937E-2,-3.657382E-4,2.3450854E-3,2.9261822E-5,1.8160073E-3,-1.1364166E-3,-2.1064167E-3,-2.5866497E-3,-3.3164902E-3],"split_indices":[21,15,1,16,4,2,20,0,0,0,0,0,0,0,0],"split_type":[0,0,0,0,0,0,0,0,0,0,0,0,0,0,0],"sum_hessian":[1.024E3,8.55E2,1.69E2,4.79E2,3.76E2,1.9E1,1.5E2,4.5E2,2.9E1,4.3E1,3.33E2,7E0,1.2E1,2.8E1,1.22E2],"tree_param":{"num_deleted":"0","num_feature":"32","num_nodes":"15","size_leaf_vector":"1"}},{"base_weights":[-3.0774638E-4,4.247713E-2,-1.1773081E-1,9.482046E-2,1.0510621E-2,-1.5754895E-1,-5.9604533E-2,3.4048907E-3,1.4823967E-3,4.832728E-4,-1.281411E-3,-3.349235E-3,-2.7407983E-3,-1.763624E-3,-4.0065686E-4],"categories":[],"categories_nodes":[],"categories_segments":[],"categories_sizes":[],"default_left":[0,0,0,0,0,0,0,0,0,0,0,0,0,0,0],"id":61,"left_children":[1,3,5,7,9,11,13,-1,-1,-1,-1,-1,-1,-1,-1],"loss_changes":[5.15453E0,1.2572749E0,6.247766E-1,4.1549754E-1,5.0872546E-1,1.4807701E-2,1.3374493E-1,0E0,0E0,0E0,0E0,0E0,0E0,0E0,0E0],"parents":[2147483647,0,0,1,1,2,2,3,3,4,4,5,5,6,6],"right_children":[2,4,6,8,10,12,14,-1,-1,-1,-1,-1,-1,-1,-1],"split_conditions":[8.739658E-2,-5.3389367E-2,-4.044815E-2,-3.3353895E-2,-8.559126E-4,-1.8394393E-1,-2.0739298E-2,3.4048907E-3,1.4823967E-3,4.832728E-4,-1.281411E-3,-3.349235E-3,-2.7407983E-3,-1.763624E-3,-4.0065686E-4],"split_indices":[25,4,13,31,4,11,3,0,0,0,0,0,0,0,0],"split_type":[0,0,0,0,0,0,0,0,0,0,0,0,0,0,0],"sum_hessian":[1.024E3,7.51E2,2.73E2,2.84E2,4.67E2,1.61E2,1.12E2,5.3E1,2.31E2,3.94E2,7.3E1,8.4E1,7.7E1,6.2E1,5E1],"tree_param":{"num_deleted":"0","num_feature":"32","num_nodes":"15","size_leaf_vector":"1"}},{"base_weights":[-3.058002E-4,4.165298E-2,-1.1546163E-1,9.298575E-2,1.0303639E-2,-1.5450957E-1,-5.84596E-2,3.2674498E-3,1.4307857E-3,2.677055E-3,3.759527E-5,-3.434424E-3,-2.7893323E-3,-2.9200313E-4,-1.6595272E-3],"categories":[],"categories_nodes":[],"categories_segments":[],"categories_sizes":[],"default_left":[0,0,0,0,0,0,0,0,0,0,0,0,0,0,0],"id":62,"left_children":[1,3,5,7,9,11,13,-1,-1,-1,-1,-1,-1,-1,-1],"loss_changes":[4.9574027E0,1.2091967E0,6.0084033E-1,4.0553522E-1,4.968246E-1,1.5295267E-2,1.2907821E-1,0E0,0E0,0E0,0E0,0E0,0E0,0E0,0E0],"parents":[2147483647,0,0,1,1,2,2,3,3,4,4,5,5,6,6],"right_children":[2,4,6,8,10,12,14,-1,-1,-1,-1,-1,-1,-1,-1],"split_conditions":[8.739658E-2,-5.3389367E-2,-4.044815E-2,7.662924E-2,5.2875046E-2,-5.3590667E-2,-1.6481344E-2,3.2674498E-3,1.4307857E-3,2.677055E-3,3.759527E-5,-3.434424E-3,-2.7893323E-3,-2.9200313E-4,-1.6595272E-3],"split_indices":[25,4,13,26,0,3,2,0,0,0,0,0,0,0,0],"split_type":[0,0,0,0,0,0,0,0,0,0,0,0,0,0,0],"sum_hessian":[1.024E3,7.51E2,2.73E2,2.84E2,4.67E2,1.61E2,1.12E2,5.8E1,2.26E2,2.8E1,4.39E2,5.2E1,1.09E2,4.3E1,6.9E1],"tree_param":{"num_deleted":"0","num_feature":"32","num_nodes":"15","size_leaf_vector":"1"}},{"base_weights":[-3.0056882E-4,2.8969048E-2,-1.4767992E-1,7.79572E-2,-9.750139E-3,-8.999604E-2,-1.5477115E-1,-2.516033E-6,1.7182757E-3,-2.2687265E-3,4.1131857E-6,-1.1072209E-3,-2.0037596E-3,-2.422121E-3,-3.1406933E-3],"categories":[],"categories_nodes":[],"categories_segments":[],"categories_sizes":[],"default_left":[0,0,0,0,0,0,0,0,0,0,0,0,0,0,0],"id":63,"left_children":[1,3,5,7,9,11,13,-1,-1,-1,-1,-1,-1,-1,-1],"loss_changes":[4.4258595E0,1.6244051E0,5.5609226E-2,2.95866E-1,5.0775176E-1,2.9969364E-3,7.922649E-3,0E0,0E0,0E0,0E0,0E0,0E0,0E0,0E0],"parents":[2147483647,0,0,1,1,2,2,3,3,4,4,5,5,6,6],"right_children":[2,4,6,8,10,12,14,-1,-1,-1,-1,-1,-1,-1,-1],"split_conditions":[1.4589563E-1,-2.0478791E-1,-2.5180893E-2,-7.1747415E-2,-3.6155503E-2,-6.926497E-2,-5.4585937E-2,-2.516033E-6,1.7182757E-3,-2.2687265E-3,4.1131857E-6,-1.1072209E-3,-2.0037596E-3,-2.422121E-3,-3.1406933E-3],"split_indices":[27,22,1,4,12,2,20,0,0,0,0,0,0,0,0],"split_type":[0,0,0,0,0,0,0,0,0,0,0,0,0,0,0],"sum_hessian":[1.024E3,8.55E2,1.69E2,3.77E2,4.78E2,2E1,1.49E2,4.3E1,3.34E2,4E1,4.38E2,7E0,1.3E1,2.8E1,1.21E2],"tree_param":{"num_deleted":"0","num_feature":"32","num_nodes":"15","size_leaf_vector":"1"}},{"base_weights":[-3.0369931E-4,2.8402938E-2,-1.4484827E-1,-9.51554E-3,7.660577E-2,-8.839895E-2,-1.5178552E-1,-3.5037487E-4,2.2938603E-3,2.5367325E-3,1.207284E-3,-1.0889354E-3,-1.9674213E-3,-2.3764477E-3,-3.0798577E-3],"categories":[],"categories_nodes":[],"categories_segments":[],"categories_sizes":[],"default_left":[0,0,0,0,0,0,0,0,0,0,0,0,0,0,0],"id":64,"left_children":[1,3,5,7,9,11,13,-1,-1,-1,-1,-1,-1,-1,-1],"loss_changes":[4.257238E0,1.5653067E0,5.3154707E-2,5.1554257E-1,2.890513E-1,2.8411895E-3,7.507801E-3,0E0,0E0,0E0,0E0,0E0,0E0,0E0,0E0],"parents":[2147483647,0,0,1,1,2,2,3,3,4,4,5,5,6,6],"right_children":[2,4,6,8,10,12,14,-1,-1,-1,-1,-1,-1,-1,-1],"split_conditions":[6.1972495E-2,8.2512125E-2,-2.5180893E-2,-6.5375045E-2,-2.4438913E-1,-6.926497E-2,-5.4585937E-2,-3.5037487E-4,2.2938603E-3,2.5367325E-3,1.207284E-3,-1.0889354E-3,-1.9674213E-3,-2.3764477E-3,-3.0798577E-3],"split_indices":[21,15,1,16,22,2,20,0,0,0,0,0,0,0,0],"split_type":[0,0,0,0,0,0,0,0,0,0,0,0,0,0,0],"sum_hessian":[1.024E3,8.55E2,1.69E2,4.79E2,3.76E2,2E1,1.49E2,4.5E2,2.9E1,8E1,2.96E2,7E0,1.3E1,2.8E1,1.21E2],"tree_param":{"num_deleted":"0","num_feature":"32","num_nodes":"15","size_leaf_vector":"1"}},{"base_weights":[-3.005275E-4,4.233314E-2,-1.02507405E-1,1.2602324E-2,9.140273E-2,-5.2085187E-2,-1.4576064E-1,2.776388E-3,6.6092456E-5,1.9943048E-3,2.4164703E-5,-1.915151E-4,-1.6090112E-3,-3.1139185E-3,-2.5190678E-3],"categories":[],"categories_nodes":[],"categories_segments":[],"categories_sizes":[],"default_left":[0,0,0,0,0,0,0,0,0,0,0,0,0,0,0],"id":65,"left_children":[1,3,5,7,9,11,13,-1,-1,-1,-1,-1,-1,-1,-1],"loss_changes":[4.47073E0,1.0550764E0,6.510472E-1,5.39333E-1,2.6353455E-1,1.7982534E-1,1.6617775E-2,0E0,0E0,0E0,0E0,0E0,0E0,0E0,0E0],"parents":[2147483647,0,0,1,1,2,2,3,3,4,4,5,5,6,6],"right_children":[2,4,6,8,10,12,14,-1,-1,-1,-1,-1,-1,-1,-1],"split_conditions":[8.642469E-2,6.8823993E-3,1.04595795E-1,5.4445136E-2,-5.000452E-3,-4.1331064E-2,-1.8394393E-1,2.776388E-3,6.6092456E-5,1.9943048E-3,2.4164703E-5,-1.915151E-4,-1.6090112E-3,-3.1139185E-3,-2.5190678E-3],"split_indices":[25,3,25,0,30,14,11,0,0,0,0,0,0,0,0],"split_type":[0,0,0,0,0,0,0,0,0,0,0,0,0,0,0],"sum_hessian":[1.024E3,7.23E2,3.01E2,4.51E2,2.72E2,1.4E2,1.61E2,2.9E1,4.22E2,2.43E2,2.9E1,5.9E1,8.1E1,8.4E1,7.7E1],"tree_param":{"num_deleted":"0","num_feature":"32","num_nodes":"15","size_leaf_vector":"1"}},{"base_weights":[-2.9716807E-4,4.151308E-2,-1.0053003E-1,8.9625E-2,1.23624895E-2,-1.4268494E-1,-5.0731603E-2,3.1414255E-3,1.3687699E-3,2.7239725E-3,6.480476E-5,-2.5204285E-3,-3.121539E-3,-1.5530003E-3,-1.1975988E-4],"categories":[],"categories_nodes":[],"categories_segments":[],"categories_sizes":[],"default_left":[0,0,0,0,0,0,0,0,0,0,0,0,0,0,0],"id":66,"left_children":[1,3,5,7,9,11,13,-1,-1,-1,-1,-1,-1,-1,-1],"loss_changes":[4.299703E0,1.0142956E0,6.267345E-1,3.6867237E-1,5.191766E-1,1.7472982E-2,1.792529E-1,0E0,0E0,0E0,0E0,0E0,0E0,0E0,0E0],"parents":[2147483647,0,0,1,1,2,2,3,3,4,4,5,5,6,6],"right_children":[2,4,6,8,10,12,14,-1,-1,-1,-1,-1,-1,-1,-1],"split_conditions":[8.642469E-2,-3.8953986E-2,-3.982538E-2,7.662924E-2,5.4445136E-2,6.8348594E-2,-3.2513667E-2,3.1414255E-3,1.3687699E-3,2.7239725E-3,6.480476E-5,-2.5204285E-3,-3.121539E-3,-1.5530003E-3,-1.1975988E-4],"split_indices":[25,2,13,26,0,2,24,0,0,0,0,0,0,0,0],"split_type":[0,0,0,0,0,0,0,0,0,0,0,0,0,0,0],"sum_hessian":[1.024E3,7.23E2,3.01E2,2.72E2,4.51E2,1.62E2,1.39E2,5.7E1,2.15E2,2.9E1,4.22E2,9.5E1,6.7E1,8.4E1,5.5E1],"tree_param":{"num_deleted":"0","num_feature":"32","num_nodes":"15","size_leaf_vector":"1"}},{"base_weights":[-2.9137798E-4,4.071241E-2,-9.859088E-2,8.831797E-2,1.237348E-2,-1.3993289E-1,-4.9752757E-2,3.1964856E-3,1.3421614E-3,5.30622E-4,-1.253298E-3,-2.471717E-3,-3.0614715E-3,-1.5230267E-3,-1.1746281E-4],"categories":[],"categories_nodes":[],"categories_segments":[],"categories_sizes":[],"default_left":[0,0,0,0,0,0,0,0,0,0,0,0,0,0,0],"id":67,"left_children":[1,3,5,7,9,11,13,-1,-1,-1,-1,-1,-1,-1,-1],"loss_changes":[4.135432E0,9.756485E-1,6.0279584E-1,3.87419E-1,5.1705956E-1,1.6834736E-2,1.7239675E-1,0E0,0E0,0E0,0E0,0E0,0E0,0E0,0E0],"parents":[2147483647,0,0,1,1,2,2,3,3,4,4,5,5,6,6],"right_children":[2,4,6,8,10,12,14,-1,-1,-1,-1,-1,-1,-1,-1],"split_conditions":[8.642469E-2,-5.3529516E-2,-3.982538E-2,7.662924E-2,-8.559126E-4,6.8348594E-2,-3.2513667E-2,3.1964856E-3,1.3421614E-3,5.30622E-4,-1.253298E-3,-2.471717E-3,-3.0614715E-3,-1.5230267E-3,-1.1746281E-4],"split_indices":[25,4,13,26,4,2,24,0,0,0,0,0,0,0,0],"split_type":[0,0,0,0,0,0,0,0,0,0,0,0,0,0,0],"sum_hessian":[1.024E3,7.23E2,3.01E2,2.69E2,4.54E2,1.62E2,1.39E2,5.4E1,2.15E2,3.81E2,7.3E1,9.5E1,6.7E1,8.4E1,5.5E1],"tree_param":{"num_deleted":"0","num_feature":"32","num_nodes":"15","size_leaf_vector":"1"}},{"base_weights":[-2.889585E-4,3.9922565E-2,-9.668914E-2,8.660992E-2,1.2130238E-2,-1.3723391E-1,-4.8792794E-2,3.135193E-3,1.3160704E-3,5.2028615E-4,-1.2291517E-3,-2.9394089E-3,-2.3673822E-3,-1.5055931E-4,-1.5186274E-3],"categories":[],"categories_nodes":[],"categories_segments":[],"categories_sizes":[],"default_left":[0,0,0,0,0,0,0,0,0,0,0,0,0,0,0],"id":68,"left_children":[1,3,5,7,9,11,13,-1,-1,-1,-1,-1,-1,-1,-1],"loss_changes":[3.9771683E0,9.383756E-1,5.79772E-1,3.7285495E-1,4.9726382E-1,1.6407013E-2,1.6600043E-1,0E0,0E0,0E0,0E0,0E0,0E0,0E0,0E0],"parents":[2147483647,0,0,1,1,2,2,3,3,4,4,5,5,6,6],"right_children":[2,4,6,8,10,12,14,-1,-1,-1,-1,-1,-1,-1,-1],"split_conditions":[8.642469E-2,-5.3529516E-2,-3.982538E-2,7.662924E-2,-8.559126E-4,-1.8394393E-1,-4.1331064E-2,3.135193E-3,1.3160704E-3,5.2028615E-4,-1.2291517E-3,-2.9394089E-3,-2.3673822E-3,-1.5055931E-4,-1.5186274E-3],"split_indices":[25,4,13,26,4,11,14,0,0,0,0,0,0,0,0],"split_type":[0,0,0,0,0,0,0,0,0,0,0,0,0,0,0],"sum_hessian":[1.024E3,7.23E2,3.01E2,2.69E2,4.54E2,1.62E2,1.39E2,5.4E1,2.15E2,3.81E2,7.3E1,8.4E1,7.8E1,5.8E1,8.1E1],"tree_param":{"num_deleted":"0","num_feature":"32","num_nodes":"15","size_leaf_vector":"1"}},{"base_weights":[-2.8647215E-4,3.9148036E-2,-9.482388E-2,7.360125E-2,2.9296982E-3,-4.816914E-2,-1.3484547E-1,2.3519592E-3,1.1779502E-3,2.6527056E-3,-1.8254208E-4,-1.7534863E-4,-1.48933E-3,-2.397035E-3,-2.9763777E-3],"categories":[],"categories_nodes":[],"categories_segments":[],"categories_sizes":[],"default_left":[0,0,0,0,0,0,0,0,0,0,0,0,0,0,0],"id":69,"left_children":[1,3,5,7,9,11,13,-1,-1,-1,-1,-1,-1,-1,-1],"loss_changes":[3.8249495E0,9.0321946E-1,5.573981E-1,2.2356057E-1,5.788149E-1,1.5453109E-1,1.573348E-2,0E0,0E0,0E0,0E0,0E0,0E0,0E0,0E0],"parents":[2147483647,0,0,1,1,2,2,3,3,4,4,5,5,6,6],"right_children":[2,4,6,8,10,12,14,-1,-1,-1,-1,-1,-1,-1,-1],"split_conditions":[8.642469E-2,-1.6609615E-1,1.04595795E-1,-2.4438913E-1,5.4445136E-2,-4.9934074E-2,-1.0306212E-1,2.3519592E-3,1.1779502E-3,2.6527056E-3,-1.8254208E-4,-1.7534863E-4,-1.48933E-3,-2.397035E-3,-2.9763777E-3],"split_indices":[25,16,25,22,0,23,19,0,0,0,0,0,0,0,0],"split_type":[0,0,0,0,0,0,0,0,0,0,0,0,0,0,0],"sum_hessian":[1.024E3,7.23E2,3.01E2,3.7E2,3.53E2,1.4E2,1.61E2,8E1,2.9E2,2.9E1,3.24E2,5.9E1,8.1E1,1E2,6.1E1],"tree_param":{"num_deleted":"0","num_feature":"32","num_nodes":"15","size_leaf_vector":"1"}},{"base_weights":[-2.8188867E-4,3.839176E-2,-9.299526E-2,8.341347E-2,1.1591206E-2,-1.3200077E-1,-4.6917457E-2,3.0462348E-3,1.2606876E-3,-1.1839896E-3,5.0785614E-4,-2.9683434E-3,-2.3683915E-3,-1.4374257E-3,-1.08958346E-4],"categories":[],"categories_nodes":[],"categories_segments":[],"categories_sizes":[],"default_left":[0,0,0,0,0,0,0,0,0,0,0,0,0,0,0],"id":70,"left_children":[1,3,5,7,9,11,13,-1,-1,-1,-1,-1,-1,-1,-1],"loss_changes":[3.6787739E0,8.726163E-1,5.365877E-1,3.594867E-1,4.751373E-1,1.6533375E-2,1.5401307E-1,0E0,0E0,0E0,0E0,0E0,0E0,0E0,0E0],"parents":[2147483647,0,0,1,1,2,2,3,3,4,4,5,5,6,6],"right_children":[2,4,6,8,10,12,14,-1,-1,-1,-1,-1,-1,-1,-1],"split_conditions":[8.642469E-2,-5.3529516E-2,-3.982538E-2,7.662924E-2,-6.985354E-2,-5.3590667E-2,-3.2513667E-2,3.0462348E-3,1.2606876E-3,-1.1839896E-3,5.0785614E-4,-2.9683434E-3,-2.3683915E-3,-1.4374257E-3,-1.08958346E-4],"split_indices":[25,4,13,26,10,3,24,0,0,0,0,0,0,0,0],"split_type":[0,0,0,0,0,0,0,0,0,0,0,0,0,0,0],"sum_hessian":[1.024E3,7.23E2,3.01E2,2.69E2,4.54E2,1.62E2,1.39E2,5.4E1,2.15E2,7.5E1,3.79E2,5.2E1,1.1E2,8.4E1,5.5E1],"tree_param":{"num_deleted":"0","num_feature":"32","num_nodes":"15","size_leaf_vector":"1"}},{"base_weights":[-2.7956098E-4,3.764697E-2,-9.120184E-2,7.4961185E-2,6.5509556E-3,-1.3183941E-1,-4.8588514E-2,1.5925125E-3,-4.016487E-4,-1.1611703E-3,4.3275295E-4,-3.1672472E-3,-2.4411166E-3,-1.5105802E-3,-3.5930108E-4],"categories":[],"categories_nodes":[],"categories_segments":[],"categories_sizes":[],"default_left":[0,0,0,0,0,0,0,0,0,0,0,0,0,0,0],"id":71,"left_children":[1,3,5,7,9,11,13,-1,-1,-1,-1,-1,-1,-1,-1],"loss_changes":[3.5380096E0,8.3958304E-1,5.1656795E-1,2.0847392E-1,4.0926567E-1,1.1715174E-2,1.2794253E-1,0E0,0E0,0E0,0E0,0E0,0E0,0E0,0E0],"parents":[2147483647,0,0,1,1,2,2,3,3,4,4,5,5,6,6],"right_children":[2,4,6,8,10,12,14,-1,-1,-1,-1,-1,-1,-1,-1],"split_conditions":[8.642469E-2,-8.325711E-2,-4.9519017E-2,-4.213266E-3,-6.985354E-2,-5.6442708E-2,5.2681766E-2,1.5925125E-3,-4.016487E-4,-1.1611703E-3,4.3275295E-4,-3.1672472E-3,-2.4411166E-3,-1.5105802E-3,-3.5930108E-4],"split_indices":[25,17,13,30,10,3,10,0,0,0,0,0,0,0,0],"split_type":[0,0,0,0,0,0,0,0,0,0,0,0,0,0,0],"sum_hessian":[1.024E3,7.23E2,3.01E2,3.28E2,3.95E2,1.53E2,1.48E2,3.07E2,2.1E1,7.5E1,3.2E2,2.4E1,1.29E2,7.5E1,7.3E1],"tree_param":{"num_deleted":"0","num_feature":"32","num_nodes":"15","size_leaf_vector":"1"}},{"base_weights":[-2.8094766E-4,2.4334783E-2,-1.2422674E-1,-8.526643E-3,6.610972E-2,-7.956095E-2,-1.3067403E-1,-3.2450288E-4,2.213931E-3,-9.3292096E-5,1.4696482E-3,-1.0297544E-3,-1.7090649E-3,-2.6734367E-3,-1.9897071E-3],"categories":[],"categories_nodes":[],"categories_segments":[],"categories_sizes":[],"default_left":[0,0,0,0,0,0,0,0,0,0,0,0,0,0,0],"id":72,"left_children":[1,3,5,7,9,11,13,-1,-1,-1,-1,-1,-1,-1,-1],"loss_changes":[3.1303148E0,1.1756668E0,3.855896E-2,4.751228E-1,2.4462986E-1,5.0471723E-4,1.2355089E-2,0E0,0E0,0E0,0E0,0E0,0E0,0E0,0E0],"parents":[2147483647,0,0,1,1,2,2,3,3,4,4,5,5,6,6],"right_children":[2,4,6,8,10,12,14,-1,-1,-1,-1,-1,-1,-1,-1],"split_conditions":[6.1972495E-2,8.2512125E-2,-1.4753166E-2,-6.5375045E-2,-7.1747415E-2,-6.926497E-2,1.4052534E-1,-3.2450288E-4,2.213931E-3,-9.3292096E-5,1.4696482E-3,-1.0297544E-3,-1.7090649E-3,-2.6734367E-3,-1.9897071E-3],"split_indices":[21,15,1,16,4,2,1,0,0,0,0,0,0,0,0],"split_type":[0,0,0,0,0,0,0,0,0,0,0,0,0,0,0],"sum_hessian":[1.024E3,8.55E2,1.69E2,4.79E2,3.76E2,2.3E1,1.46E2,4.5E2,2.9E1,4.3E1,3.33E2,7E0,1.6E1,1.17E2,2.9E1],"tree_param":{"num_deleted":"0","num_feature":"32","num_nodes":"15","size_leaf_vector":"1"}},{"base_weights":[-2.7949616E-4,3.6304094E-2,-8.7982275E-2,5.3117722E-2,-2.8390171E-2,-1.1205049E-1,-2.204256E-2,1.7154805E-3,5.429873E-4,1.3372165E-3,-7.745571E-4,-2.3896236E-3,-1.0111621E-3,-1.1188651E-3,-9.091492E-5],"categories":[],"categories_nodes":[],"categories_segments":[],"categories_sizes":[],"default_left":[0,0,0,0,0,0,0,0,0,0,0,0,0,0,0],"id":73,"left_children":[1,3,5,7,9,11,13,-1,-1,-1,-1,-1,-1,-1,-1],"loss_changes":[3.2918885E0,7.890357E-1,4.7681952E-1,5.029471E-1,1.6644672E-1,1.3093805E-1,4.998676E-2,0E0,0E0,0E0,0E0,0E0,0E0,0E0,0E0],"parents":[2147483647,0,0,1,1,2,2,3,3,4,4,5,5,6,6],"right_children":[2,4,6,8,10,12,14,-1,-1,-1,-1,-1,-1,-1,-1],"split_conditions":[8.642469E-2,6.508362E-3,3.8213383E-2,-1.3323945E-2,4.9076125E-2,-9.1101885E-2,-6.762556E-2,1.7154805E-3,5.429873E-4,1.3372165E-3,-7.745571E-4,-2.3896236E-3,-1.0111621E-3,-1.1188651E-3,-9.091492E-5],"split_indices":[25,14,10,9,0,29,7,0,0,0,0,0,0,0,0],"split_type":[0,0,0,0,0,0,0,0,0,0,0,0,0,0,0],"sum_hessian":[1.024E3,7.23E2,3.01E2,5.74E2,1.49E2,2.2E2,8.1E1,2.41E2,3.33E2,1.5E1,1.34E2,1.87E2,3.3E1,2.6E1,5.5E1],"tree_param":{"num_deleted":"0","num_feature":"32","num_nodes":"15","size_leaf_vector":"1"}},{"base_weights":[-2.7578356E-4,3.5598963E-2,-8.627923E-2,7.757587E-2,1.0611351E-2,-2.1626815E-2,-1.09877504E-1,2.9124487E-3,1.1522421E-3,2.5729954E-3,4.0152645E-5,-1.0978227E-3,-8.9170986E-5,-2.3349696E-3,-9.119558E-4],"categories":[],"categories_nodes":[],"categories_segments":[],"categories_sizes":[],"default_left":[0,0,0,0,0,0,0,0,0,0,0,0,0,0,0],"id":74,"left_children":[1,3,5,7,9,11,13,-1,-1,-1,-1,-1,-1,-1,-1],"loss_changes":[3.1655574E0,7.585823E-1,4.583807E-1,3.5009634E-1,4.712667E-1,4.812758E-2,1.2957644E-1,0E0,0E0,0E0,0E0,0E0,0E0,0E0,0E0],"parents":[2147483647,0,0,1,1,2,2,3,3,4,4,5,5,6,6],"right_children":[2,4,6,8,10,12,14,-1,-1,-1,-1,-1,-1,-1,-1],"split_conditions":[8.642469E-2,-5.3529516E-2,3.5124283E-2,7.662924E-2,5.4445136E-2,-6.762556E-2,-5.3089014E-3,2.9124487E-3,1.1522421E-3,2.5729954E-3,4.0152645E-5,-1.0978227E-3,-8.9170986E-5,-2.3349696E-3,-9.119558E-4],"split_indices":[25,4,28,26,0,7,4,0,0,0,0,0,0,0,0],"split_type":[0,0,0,0,0,0,0,0,0,0,0,0,0,0,0],"sum_hessian":[1.024E3,7.23E2,3.01E2,2.69E2,4.54E2,8.1E1,2.2E2,5.4E1,2.15E2,2.9E1,4.25E2,2.6E1,5.5E1,1.9E2,3E1],"tree_param":{"num_deleted":"0","num_feature":"32","num_nodes":"15","size_leaf_vector":"1"}},{"base_weights":[-2.6821066E-4,3.261382E-2,-9.051281E-2,7.318155E-2,7.978753E-3,-4.9532887E-2,-1.2212358E-1,2.8807984E-3,1.0837377E-3,2.4001289E-3,7.888554E-6,-1.7121474E-3,-6.0578244E-4,-2.9691593E-3,-2.2544276E-3],"categories":[],"categories_nodes":[],"categories_segments":[],"categories_sizes":[],"default_left":[0,0,0,0,0,0,0,0,0,0,0,0,0,0,0],"id":75,"left_children":[1,3,5,7,9,11,13,-1,-1,-1,-1,-1,-1,-1,-1],"loss_changes":[3.0445635E0,7.509564E-1,3.488922E-1,3.6523664E-1,4.0819588E-1,8.271325E-2,1.3263941E-2,0E0,0E0,0E0,0E0,0E0,0E0,0E0,0E0],"parents":[2147483647,0,0,1,1,2,2,3,3,4,4,5,5,6,6],"right_children":[2,4,6,8,10,12,14,-1,-1,-1,-1,-1,-1,-1,-1],"split_conditions":[8.739658E-2,-3.8953986E-2,1.18111044E-1,-3.3353895E-2,5.2875046E-2,2.8421013E-2,-5.6442708E-2,2.8807984E-3,1.0837377E-3,2.4001289E-3,7.888554E-6,-1.7121474E-3,-6.0578244E-4,-2.9691593E-3,-2.2544276E-3],"split_indices":[25,2,25,31,0,21,3,0,0,0,0,0,0,0,0],"split_type":[0,0,0,0,0,0,0,0,0,0,0,0,0,0,0],"sum_hessian":[1.024E3,7.51E2,2.73E2,2.83E2,4.68E2,1.2E2,1.53E2,5.3E1,2.3E2,2.8E1,4.4E2,3.8E1,8.2E1,2.4E1,1.29E2],"tree_param":{"num_deleted":"0","num_feature":"32","num_nodes":"15","size_leaf_vector":"1"}},{"base_weights":[-2.6411144E-4,3.4280103E-2,-8.307784E-2,5.056456E-2,-2.8372183E-2,-1.0584715E-1,-2.0698642E-2,1.6291046E-3,5.197278E-4,1.2216769E-3,-7.604732E-4,-2.248354E-3,-8.84467E-4,-1.0547544E-3,-8.3392384E-5],"categories":[],"categories_nodes":[],"categories_segments":[],"categories_sizes":[],"default_left":[0,0,0,0,0,0,0,0,0,0,0,0,0,0,0],"id":76,"left_children":[1,3,5,7,9,11,13,-1,-1,-1,-1,-1,-1,-1,-1],"loss_changes":[2.9351015E0,7.4010175E-1,4.2674875E-1,4.5022547E-1,1.4654616E-1,1.1891985E-1,4.46401E-2,0E0,0E0,0E0,0E0,0E0,0E0,0E0,0E0],"parents":[2147483647,0,0,1,1,2,2,3,3,4,4,5,5,6,6],"right_children":[2,4,6,8,10,12,14,-1,-1,-1,-1,-1,-1,-1,-1],"split_conditions":[8.642469E-2,6.508362E-3,3.8213383E-2,-1.3323945E-2,4.9076125E-2,-5.3089014E-3,-6.762556E-2,1.6291046E-3,5.197278E-4,1.2216769E-3,-7.604732E-4,-2.248354E-3,-8.84467E-4,-1.0547544E-3,-8.3392384E-5],"split_indices":[25,14,10,9,0,4,7,0,0,0,0,0,0,0,0],"split_type":[0,0,0,0,0,0,0,0,0,0,0,0,0,0,0],"sum_hessian":[1.024E3,7.23E2,3.01E2,5.74E2,1.49E2,2.2E2,8.1E1,2.41E2,3.33E2,1.5E1,1.34E2,1.9E2,3E1,2.6E1,5.5E1],"tree_param":{"num_deleted":"0","num_feature":"32","num_nodes":"15","size_leaf_vector":"1"}},{"base_weights":[-2.605757E-4,2.2129878E-2,-1.1300156E-1,-8.0183E-3,6.0456127E-2,-1.4127025E-3,-1.1887239E-1,-3.0896772E-4,2.1392338E-3,-1.318386E-4,1.3500954E-3,-1.7574993E-3,-2.4395587E-3],"categories":[],"categories_nodes":[],"categories_segments":[],"categories_sizes":[],"default_left":[0,0,0,0,0,0,0,0,0,0,0,0,0],"id":77,"left_children":[1,3,5,7,9,-1,11,-1,-1,-1,-1,-1,-1],"loss_changes":[2.5899305E0,9.895642E-1,3.1989098E-2,4.4194856E-1,2.2020245E-1,0E0,1.440382E-2,0E0,0E0,0E0,0E0,0E0,0E0],"parents":[2147483647,0,0,1,1,2,2,3,3,4,4,6,6],"right_children":[2,4,6,8,10,-1,12,-1,-1,-1,-1,-1,-1],"split_conditions":[6.1972495E-2,8.2512125E-2,-1.4753166E-2,-6.5375045E-2,-7.1747415E-2,-1.4127025E-3,-5.4585937E-2,-3.0896772E-4,2.1392338E-3,-1.318386E-4,1.3500954E-3,-1.7574993E-3,-2.4395587E-3],"split_indices":[21,15,1,16,4,0,20,0,0,0,0,0,0],"split_type":[0,0,0,0,0,0,0,0,0,0,0,0,0],"sum_hessian":[1.024E3,8.55E2,1.69E2,4.79E2,3.76E2,2.3E1,1.46E2,4.5E2,2.9E1,4.3E1,3.33E2,2.8E1,1.18E2],"tree_param":{"num_deleted":"0","num_feature":"32","num_nodes":"13","size_leaf_vector":"1"}},{"base_weights":[-2.5799018E-4,3.3372425E-2,-7.938754E-2,4.956229E-2,-2.5961995E-2,-1.01864114E-1,-1.9750027E-2,3.423269E-3,8.4817084E-4,1.4910788E-3,-7.317772E-4,-2.1670104E-3,-8.672838E-4,-1.0291071E-3,-8.475306E-5],"categories":[],"categories_nodes":[],"categories_segments":[],"categories_sizes":[],"default_left":[0,0,0,0,0,0,0,0,0,0,0,0,0,0,0],"id":78,"left_children":[1,3,5,7,9,11,13,-1,-1,-1,-1,-1,-1,-1,-1],"loss_changes":[2.730338E0,6.9293046E-1,4.081651E-1,4.2883146E-1,1.8533926E-1,1.11056566E-1,4.292314E-2,0E0,0E0,0E0,0E0,0E0,0E0,0E0,0E0],"parents":[2147483647,0,0,1,1,2,2,3,3,4,4,5,5,6,6],"right_children":[2,4,6,8,10,12,14,-1,-1,-1,-1,-1,-1,-1,-1],"split_conditions":[8.6296156E-2,5.823816E-3,3.8213383E-2,-2.96686E-2,4.9398504E-2,-5.3089014E-3,-6.762556E-2,3.423269E-3,8.4817084E-4,1.4910788E-3,-7.317772E-4,-2.1670104E-3,-8.672838E-4,-1.0291071E-3,-8.475306E-5],"split_indices":[25,14,10,3,0,4,7,0,0,0,0,0,0,0,0],"split_type":[0,0,0,0,0,0,0,0,0,0,0,0,0,0,0],"sum_hessian":[1.024E3,7.19E2,3.05E2,5.65E2,1.54E2,2.21E2,8.4E1,2.5E1,5.4E2,1.5E1,1.39E2,1.9E2,3.1E1,2.6E1,5.8E1],"tree_param":{"num_deleted":"0","num_feature":"32","num_nodes":"15","size_leaf_vector":"1"}},{"base_weights":[-2.5209144E-4,3.272764E-2,-7.785064E-2,4.8211772E-2,-2.6934449E-2,-9.846867E-2,-1.5253254E-2,1.5672334E-3,4.8783846E-4,1.3270398E-3,-7.2803505E-4,-2.0828038E-3,-8.307942E-4,-1.009753E-3,8.480648E-5],"categories":[],"categories_nodes":[],"categories_segments":[],"categories_sizes":[],"default_left":[0,0,0,0,0,0,0,0,0,0,0,0,0,0,0],"id":79,"left_children":[1,3,5,7,9,11,13,-1,-1,-1,-1,-1,-1,-1,-1],"loss_changes":[2.625707E0,6.6644585E-1,3.9343226E-1,4.237187E-1,1.4875722E-1,1.0064769E-1,5.522087E-2,0E0,0E0,0E0,0E0,0E0,0E0,0E0,0E0],"parents":[2147483647,0,0,1,1,2,2,3,3,4,4,5,5,6,6],"right_children":[2,4,6,8,10,12,14,-1,-1,-1,-1,-1,-1,-1,-1],"split_conditions":[8.6296156E-2,6.508362E-3,5.2681766E-2,-1.3323945E-2,4.9076125E-2,-5.0351922E-3,-6.762556E-2,1.5672334E-3,4.8783846E-4,1.3270398E-3,-7.2803505E-4,-2.0828038E-3,-8.307942E-4,-1.009753E-3,8.480648E-5],"split_indices":[25,14,10,9,0,4,7,0,0,0,0,0,0,0,0],"split_type":[0,0,0,0,0,0,0,0,0,0,0,0,0,0,0],"sum_hessian":[1.024E3,7.19E2,3.05E2,5.71E2,1.48E2,2.29E2,7.6E1,2.39E2,3.32E2,1.4E1,1.34E2,1.99E2,3E1,2.6E1,5E1],"tree_param":{"num_deleted":"0","num_feature":"32","num_nodes":"15","size_leaf_vector":"1"}},{"base_weights":[-2.4832343E-4,3.209215E-2,-7.634274E-2,-5.574524E-2,4.224031E-2,-9.798412E-2,-1.8922402E-2,-5.04722E-4,-1.3064756E-3,1.5693171E-3,3.259573E-4,-2.0844454E-3,-8.3439227E-4,-9.907627E-4,-7.901388E-5],"categories":[],"categories_nodes":[],"categories_segments":[],"categories_sizes":[],"default_left":[0,0,0,0,0,0,0,0,0,0,0,0,0,0,0],"id":80,"left_children":[1,3,5,7,9,11,13,-1,-1,-1,-1,-1,-1,-1,-1],"loss_changes":[2.5249028E0,6.44154E-1,3.7839854E-1,2.3276791E-2,6.2773716E-1,1.0272741E-1,4.0015813E-2,0E0,0E0,0E0,0E0,0E0,0E0,0E0,0E0],"parents":[2147483647,0,0,1,1,2,2,3,3,4,4,5,5,6,6],"right_children":[2,4,6,8,10,12,14,-1,-1,-1,-1,-1,-1,-1,-1],"split_conditions":[8.6296156E-2,-6.985354E-2,3.8213383E-2,3.251869E-2,-1.3323945E-2,-5.3089014E-3,-6.762556E-2,-5.04722E-4,-1.3064756E-3,1.5693171E-3,3.259573E-4,-2.0844454E-3,-8.3439227E-4,-9.907627E-4,-7.901388E-5],"split_indices":[25,10,10,22,9,4,7,0,0,0,0,0,0,0,0],"split_type":[0,0,0,0,0,0,0,0,0,0,0,0,0,0,0],"sum_hessian":[1.024E3,7.19E2,3.05E2,7.4E1,6.45E2,2.21E2,8.4E1,2.1E1,5.3E1,2.58E2,3.87E2,1.9E2,3.1E1,2.6E1,5.8E1],"tree_param":{"num_deleted":"0","num_feature":"32","num_nodes":"15","size_leaf_vector":"1"}},{"base_weights":[-2.4728524E-4,2.0501873E-2,-1.04723945E-1,-7.803273E-3,5.6485873E-2,-1.19516954E-1,-8.8885225E-2,-2.9731603E-4,2.0312623E-3,1.9847425E-3,8.5903803E-4,-1.7434887E-3,-2.8205074E-3,-9.443629E-4,-1.816202E-3],"categories":[],"categories_nodes":[],"categories_segments":[],"categories_sizes":[],"default_left":[0,0,0,0,0,0,0,0,0,0,0,0,0,0,0],"id":81,"left_children":[1,3,5,7,9,11,13,-1,-1,-1,-1,-1,-1,-1,-1],"loss_changes":[2.2241447E0,8.7230444E-1,2.9208302E-2,3.998124E-1,2.0825732E-1,5.1124454E-2,9.827554E-3,0E0,0E0,0E0,0E0,0E0,0E0,0E0,0E0],"parents":[2147483647,0,0,1,1,2,2,3,3,4,4,5,5,6,6],"right_children":[2,4,6,8,10,12,14,-1,-1,-1,-1,-1,-1,-1,-1],"split_conditions":[1.4589563E-1,8.2512125E-2,-1.8394393E-1,-6.5375045E-2,-2.4438913E-1,-5.151043E-2,-1.6176791E-1,-2.9731603E-4,2.0312623E-3,1.9847425E-3,8.5903803E-4,-1.7434887E-3,-2.8205074E-3,-9.443629E-4,-1.816202E-3],"split_indices":[27,15,11,16,22,20,9,0,0,0,0,0,0,0,0],"split_type":[0,0,0,0,0,0,0,0,0,0,0,0,0,0,0],"sum_hessian":[1.024E3,8.55E2,1.69E2,4.79E2,3.76E2,8.4E1,8.5E1,4.5E2,2.9E1,8E1,2.96E2,4E1,4.4E1,9E0,7.6E1],"tree_param":{"num_deleted":"0","num_feature":"32","num_nodes":"15","size_leaf_vector":"1"}},{"base_weights":[-2.4513554E-4,3.1283055E-2,-7.30643E-2,4.664954E-2,-2.4634678E-2,-9.322864E-2,-1.392645E-2,3.2846758E-3,7.94454E-4,1.4260239E-3,-6.956422E-4,-1.9701165E-3,-7.9370255E-4,-9.463224E-4,8.939903E-5],"categories":[],"categories_nodes":[],"categories_segments":[],"categories_sizes":[],"default_left":[0,0,0,0,0,0,0,0,0,0,0,0,0,0,0],"id":82,"left_children":[1,3,5,7,9,11,13,-1,-1,-1,-1,-1,-1,-1,-1],"loss_changes":[2.3555386E0,6.163787E-1,3.683691E-1,4.010116E-1,1.688563E-1,8.879495E-2,5.133399E-2,0E0,0E0,0E0,0E0,0E0,0E0,0E0,0E0],"parents":[2147483647,0,0,1,1,2,2,3,3,4,4,5,5,6,6],"right_children":[2,4,6,8,10,12,14,-1,-1,-1,-1,-1,-1,-1,-1],"split_conditions":[8.607056E-2,5.823816E-3,5.2681766E-2,-2.96686E-2,4.9398504E-2,-5.0351922E-3,-6.762556E-2,3.2846758E-3,7.94454E-4,1.4260239E-3,-6.956422E-4,-1.9701165E-3,-7.9370255E-4,-9.463224E-4,8.939903E-5],"split_indices":[25,14,10,3,0,4,7,0,0,0,0,0,0,0,0],"split_type":[0,0,0,0,0,0,0,0,0,0,0,0,0,0,0],"sum_hessian":[1.024E3,7.15E2,3.09E2,5.61E2,1.54E2,2.3E2,7.9E1,2.5E1,5.36E2,1.5E1,1.39E2,2E2,3E1,2.7E1,5.2E1],"tree_param":{"num_deleted":"0","num_feature":"32","num_nodes":"15","size_leaf_vector":"1"}},{"base_weights":[-2.391862E-4,3.0678812E-2,-7.1649015E-2,-5.381411E-2,4.0501695E-2,-9.278167E-2,-1.7282765E-2,-4.8433544E-4,-1.2623988E-3,1.5061882E-3,3.0343697E-4,-1.971737E-3,-7.972458E-4,-6.0739305E-5,-9.285006E-4],"categories":[],"categories_nodes":[],"categories_segments":[],"categories_sizes":[],"default_left":[0,0,0,0,0,0,0,0,0,0,0,0,0,0,0],"id":83,"left_children":[1,3,5,7,9,11,13,-1,-1,-1,-1,-1,-1,-1,-1],"loss_changes":[2.2652435E0,5.964337E-1,3.5455632E-1,2.195181E-2,5.857171E-1,9.062517E-2,3.7591316E-2,0E0,0E0,0E0,0E0,0E0,0E0,0E0,0E0],"parents":[2147483647,0,0,1,1,2,2,3,3,4,4,5,5,6,6],"right_children":[2,4,6,8,10,12,14,-1,-1,-1,-1,-1,-1,-1,-1],"split_conditions":[8.607056E-2,-6.985354E-2,3.8213383E-2,3.251869E-2,-1.2765361E-2,-5.3089014E-3,1.062598E-3,-4.8433544E-4,-1.2623988E-3,1.5061882E-3,3.0343697E-4,-1.971737E-3,-7.972458E-4,-6.0739305E-5,-9.285006E-4],"split_indices":[25,10,10,22,9,4,11,0,0,0,0,0,0,0,0],"split_type":[0,0,0,0,0,0,0,0,0,0,0,0,0,0,0],"sum_hessian":[1.024E3,7.15E2,3.09E2,7.4E1,6.41E2,2.22E2,8.7E1,2.1E1,5.3E1,2.59E2,3.82E2,1.91E2,3.1E1,6E1,2.7E1],"tree_param":{"num_deleted":"0","num_feature":"32","num_nodes":"15","size_leaf_vector":"1"}},{"base_weights":[-2.3812136E-4,2.4059394E-2,-8.247485E-2,7.2824284E-3,7.5736426E-2,-4.7688052E-2,-1.0467695E-1,-3.099969E-5,1.7585494E-3,1.0543306E-3,2.6815257E-3,-5.30404E-4,-1.2655664E-3,-1.4977079E-3,-2.1654863E-3],"categories":[],"categories_nodes":[],"categories_segments":[],"categories_sizes":[],"default_left":[0,0,0,0,0,0,0,0,0,0,0,0,0,0,0],"id":84,"left_children":[1,3,5,7,9,11,13,-1,-1,-1,-1,-1,-1,-1,-1],"loss_changes":[2.0500863E0,6.8609977E-1,1.7573583E-1,4.3984407E-1,2.5238287E-1,3.0912712E-2,1.6147733E-2,0E0,0E0,0E0,0E0,0E0,0E0,0E0,0E0],"parents":[2147483647,0,0,1,1,2,2,3,3,4,4,5,5,6,6],"right_children":[2,4,6,8,10,12,14,-1,-1,-1,-1,-1,-1,-1,-1],"split_conditions":[9.255603E-2,1.09516285E-1,-2.0366604E-2,-8.189873E-2,-3.4606732E-2,3.251869E-2,-5.4585937E-2,-3.099969E-5,1.7585494E-3,1.0543306E-3,2.6815257E-3,-5.30404E-4,-1.2655664E-3,-1.4977079E-3,-2.1654863E-3],